{"biases": [[0.9165118088219341, 1.7393281779259917, 1.1062842847507786, 0.10115886633225658, -0.9614860748432655, -0.5697940148662397, 0.000818181358380156, 0.08354765207346575, 0.17577269996994527, 0.8049541392963183, -1.6181427511249495, 0.06069045194363509, 1.0114518591867299, -0.43194877210624233, 0.07061250950077223, -1.3912345174365728, -1.1694570379570126, -0.40114564454427676, -0.8726625939387757, -0.7701627793215996, 0.31364852889780553, 0.22125131770247697, -0.06106213011921022, -1.7567042102678294, 1.8347669060524994, -0.790767698401902, -0.8699063704567647, -0.35765038047970477, -1.6793535772163402, 0.060670719838345745, -0.2804592286231994, 1.4648738941757495, -0.5407532642539059, -0.2789761813159426, 0.5881243475315868, -0.7134856342831052, 0.3931960867664898, 1.1797907926090823, 2.1361114784770363, -0.8204782928821251, -1.16854877962035, -0.23113018179646594, -0.8506350796178641, 0.16211580434048056, -0.43925546489291134, -0.1321996833287658, 0.5990284853441648, 0.7603533069790742, 1.248678778805711, -0.7234225934197263], [-0.8526687508820475, -1.629567401848884, -0.32053678093476345, -1.1546705615049035, -1.5053548706651272, -0.1929452296668507, -1.9566069142680254, -0.8517369365789302, -2.464704934670269, -0.7526830024980632]], "weights": [[[-2.7904453470562433e-06, -3.480271602860541e-05, -7.116678822778886e-06, -1.1886538995540704e-05, 1.0618482839294526e-05, -1.8832136849160268e-05, 8.595423515587703e-06, 3.975197633853687e-05, -1.528682554245289e-05, 1.8291384383482277e-05, -5.5565974253058184e-06, -3.758274876377606e-07, -0.00023460516994294416, -0.0004522808459390069, 4.124710599257699e-06, -1.0916970474587604e-05, -4.607127921084351e-06, -2.2685119200574585e-06, -1.9799018769267327e-05, 4.269212111554078e-06, -5.869376022094787e-06, 2.3724279497021232e-05, -9.694802082052184e-06, 3.04916763211865e-05, 2.6411682432432123e-06, -1.7700781022609752e-05, -2.8559133850122093e-06, 1.7415258920425014e-06, 1.0481761627224101e-05, -3.0442301200980763e-05, 8.938553353047335e-06, 1.0554492433642929e-05, -1.8999004662464055e-05, -1.4123689429529477e-05, -0.0006606903652790353, -0.0017257542200820306, -0.0008216787297604142, -0.0009214955752057098, -0.0010579531112666866, -0.0016717830334819152, -0.002188234552749017, -0.0025637815943720882, -0.0010239851433032881, -0.0010748283857103277, -0.0005610615657207413, -0.0008502297361472006, -0.0008138553415613565, -0.00113378941795917, -0.0012645584224293192, -0.0009731287031006959, -0.0010007036360917979, -0.0005327725872235297, 1.3100823227173823e-05, -6.964072656192325e-06, 2.8669024809092087e-07, -7.482548570865624e-06, -1.080088041361701e-05, 2.5758067239483485e-05, 3.7873267369857635e-06, 8.679361813892532e-07, -0.00010489794841163033, -3.9067888813812355e-05, -0.0015010123606818428, -0.0038827911580289337, -0.005496929491386756, -0.005034957044304634, -0.008148341900805326, -0.008874623585351085, -0.009274579863280048, -0.009435424514864107, -0.01020197007132819, -0.009993823227247164, -0.008324826484922993, -0.0063082075991801115, -0.005947746473593505, -0.006530093264194736, -0.0035158165238149287, -0.0031843041355048667, -0.0028021075574818396, -0.0013757404947101082, -0.000364479749146917, -2.5134114843481974e-05, 3.60395873587249e-05, 3.112485486298407e-05, -1.7462103886466555e-06, -1.4681358423956138e-05, -9.022024339377344e-06, 2.228556929604554e-05, -0.00037792275631232754, -5.0065042932189314e-05, -0.0010850889330367669, -0.0023198636899288572, -0.0007998813268354699, 0.0036086359284935757, 0.0032290389180408383, -0.0012026837716304043, -0.0013505857223944373, -0.004701837713732801, -0.009989035200076624, -0.011339816347387323, -0.010780070674182065, -0.009465692396957328, -0.003661500927531964, -0.005355564789701769, -0.007837785097436158, -0.005408563345195238, -0.003946643131619503, -0.0016670986337967702, -0.0002816470066713605, -1.93667567662437e-05, 4.154916267512184e-06, -1.3840580234162842e-05, -1.1864342471293144e-05, -2.1689647579035875e-06, -2.68061309680552e-05, 0.00010458760598692457, -0.001239045570386414, 0.0009659533453687506, 0.0005595082586302728, 0.0011957390412196873, 0.004257030757921216, 0.008907410569766877, 0.0029725768662294248, -0.0019056327530958407, -0.0006141231349495046, 0.0048850731901202895, 0.006845095939561678, -0.0056665460586877705, 0.00023122408615748805, -0.0015309825988137093, -0.011507611986007119, -0.015426736613308603, -0.0030237364770305027, 0.006508645986361537, 0.005615981106086109, 0.005007906193565571, 0.002904243870814833, 0.00112076163568199, 0.0002993668983227529, 4.7744622732177526e-05, -1.8874458534353173e-06, 5.882655788408989e-06, -7.774770414203643e-05, 0.00015327107595994533, -0.00249563828618789, 0.0017223515608346925, 0.0005699694380473381, 0.004272200005485531, 0.006306317921032196, 0.00839357965808043, -0.0029204706474139737, -0.006019454965614847, -0.004905396862156726, 0.005666134380624463, 0.008864367437317583, 0.0045924526352477514, 0.01509339326052756, 0.00648312566702245, -0.004411478597303076, 0.004471946189952248, 0.01980099734220604, 0.021139402021373845, 0.021323745158991037, 0.018638601235283773, 0.00842812004490666, 0.0020677559877622705, 0.0013304102489705987, 0.0002437230013549109, 7.215197511112213e-06, 3.5639891110865614e-06, 0.00013365136095906728, 8.281306164860526e-05, -0.0012379799170301974, 0.00589485067505944, 0.00648259339565888, 0.010981240364743957, 0.011325179060274837, 0.006259486916126741, 0.002931016050373929, 0.0008116911358627344, -0.007862469794157811, -0.011832784699077585, -0.011393021825060287, -0.005052428965930327, -0.009623607262432214, -0.010227055636931723, -0.011970612043618144, 0.005866407113324813, 0.0056598922363708904, 0.005647386684747176, 0.015875083893654638, 0.023913086763158474, 0.015960879870132554, 0.007448776918820143, 0.0029038926406863355, 0.0017565243152897357, 3.0282689171029573e-05, -6.539065814821633e-05, 0.0008885362192826707, 0.0012048837121222684, 0.0028570468252442226, 0.008044062230432279, 0.013263104832660582, 0.01607329041642135, 0.011082230851460834, 0.004850181096925014, 0.012669802575074371, -0.0015024624632824762, -0.022405476663459902, -0.017064132313768843, -0.01945913395274902, -0.019806197375015027, -0.026629103687709096, -0.015618825072901778, -0.003498003832947553, 0.00823484232798197, 0.009198439888376247, 0.01497486950260524, 0.016640417672951532, 0.027222758231694896, 0.022473629651296866, 0.011632414038550367, 0.0033756446251223954, 0.0005619555825310649, -0.00011309361575723135, 9.498310036559415e-05, 0.0023328799244903197, 0.004148504109838662, 0.0073589334129972855, 0.012466622164147362, 0.010186162523183473, 0.01595932822202337, 0.007729488792057291, 0.008967312286091817, 0.012233346300983293, 0.006814590504332534, 0.005342444555342707, -0.010358825450498469, -0.01550421365326918, -0.013206005728287324, -0.015042896935301297, 0.000367002643200293, 0.007092583062470961, 0.014009581765557942, 0.003366918505265392, 0.002573122223731228, 0.011858672331284372, 0.018944151913086866, 0.023635089425050312, 0.015677199020427406, 0.004620900165619008, 0.0004715598339854417, 6.957678639407139e-06, 9.474180170894078e-05, 0.0023422339292150057, 0.005163897001077555, 0.010002740690843613, 0.01301300215048968, 0.004718152721499905, 0.005888091954676461, 0.002774462623118923, 0.015098853705552272, 0.003005093792687183, 0.009383377783735889, 0.0033993663248652077, 0.001896444302536385, -0.01330211129206085, -0.013731260122400587, 0.0034180890351969933, 0.007854008377881964, 0.008052564069126522, 0.009756330633973038, 0.0022222066586618976, 0.008068825287900656, 0.01303446798996732, 0.012045140389183773, 0.01849779730151745, 0.016344296698707253, 0.0041659749167476025, 0.00012323410395735507, 8.026605052874874e-06, 0.0003913192942200519, 0.00239624576228177, 0.006021485164335543, 0.012993942119094963, 0.007665765894853523, 0.0032447069815256203, 0.006118874114751126, -0.0054225428835745155, 0.00826712116260612, 0.004824831909756801, 0.0008811045170630742, -9.486259431411523e-05, 0.00037769252597333726, -0.007884476658189903, 0.003801081879285054, 0.012761860602146145, 0.0018349963706901689, 0.008321379840700192, 0.0019738737304466738, 0.002040134634490597, 0.006717192050030838, 0.007029205177573433, 0.007157751832010727, 0.020289622610290506, 0.017294086643305707, 0.005162955027141022, 0.0001864756985819657, -1.3826354120276572e-05, 0.0009909917377553636, 0.0035893266363043316, 0.008593446526342367, 0.013005919851268585, 0.0032330581323449423, 0.0008604111616583918, -0.0028505354884549913, -0.012199794707522388, -0.006480848127859478, -0.006795372065037639, -0.002240692895941447, -0.0033857967326843008, -0.004640274871891496, -0.002532942496558619, 0.00018914745094998333, 0.005991747976826388, -0.008789171181631944, -0.0030923024977133973, -0.003128313701308727, -0.002550527435807667, -0.008237138749796, -0.005995796390253495, -0.008283205472252902, 0.007680924288063622, 0.013992581591775601, 0.004461673630782912, 0.00013282755812010953, 0.00011329477684770078, 0.0011764492662700414, 0.003447231080034229, 0.007064169211812184, 0.006149473570552732, -0.004097708403202974, -0.010166470956392087, -0.007352655520179467, -0.009902347942063367, -0.010323537253822101, -0.012913565430368198, -0.006527719919659335, -0.005080573347703368, 0.003936329109666041, -0.009041078422550872, 0.005492032277996993, 0.006037827893960421, 0.0036632993482153906, -0.004596328977781421, -0.004388543167013319, -0.005448280805433824, -0.008675590691273587, -0.027955834905533945, -0.03323133989873817, -0.0038340978618314064, 0.010949528642700782, 0.003338549305689407, 4.356857861609902e-05, -3.6823688385565103e-06, 0.0006752320844436424, 0.0020567341123393064, 0.0018995369059352791, 5.8798486052541e-05, -0.016052554027667695, -0.015218244830533635, -0.016323152874428405, -0.02203555286680815, -0.013315276210921781, -0.0098150982114036, 0.006381276105512542, 0.004070349642511998, 0.007621984515646926, -0.005834213392294918, -0.003072815438065327, -0.003172425007181681, 0.008267533773260982, -0.0011043393742400775, -0.0020271118596851415, 0.0017291038819966101, -0.012127308534141144, -0.02400991601197401, -0.02991629707785422, -0.004896516443610917, 0.007883335253207929, 0.0039740459829563386, 0.0009025951148059285, 2.2496949475754732e-05, 0.00027825660398580023, 0.0008131133987173324, 0.0006251643998213504, 0.0002841910859471678, -0.01578125767765068, -0.010361521518842023, -0.016008457582098914, -0.01120923260562364, -0.004703416088270424, -0.006514548883008468, -0.0007872098248748675, 0.012257314766173436, 0.0032764671266819504, 0.001103597493805213, 0.0029608127738486346, 0.009754914118428921, 0.002035216393080529, 0.005465121033797258, 0.009013919247951174, 0.006809375176874622, -0.008798220379103007, -0.014470493597543441, -0.016303351557472187, -0.005551544966187297, 0.0070275561139277335, 0.0029799769508386323, -7.935901935687816e-06, 2.126146897320474e-05, 2.7488683536691615e-06, 7.493534707449265e-05, 0.0039155819015305815, 0.006112232372072158, -0.008372154373182233, -0.001499544345979802, -0.004767909620150774, -0.0020938838772926543, -0.0019001940286614853, -0.004242231754292553, 0.002797862274736888, 0.009858658076738119, 0.0010763469303321444, -0.003844976021158062, 0.0058935896519078535, 0.007701855164674228, 9.438423744249092e-05, 0.011010798946315683, 0.0069560852502466245, -0.0018765459661776005, -0.0057933363656715985, -0.0071101714319963556, -0.008408994574032717, 0.0006044656922984258, 0.006560416730996071, 0.002745362051659026, 0.00030452922220954736, -7.296735567680206e-07, -6.169313246212111e-05, -0.0003089899782852148, 0.007001307102081628, 0.007849246323502961, 2.7215232981601784e-05, 0.0009280648410723195, -0.0009407315054803987, -0.007425943995361807, -0.0072857909397073895, -0.0077121067262401755, 0.0037336013296125877, 0.019784371607230896, 0.00891939779322084, 0.00029550977306783626, 0.014378945380710748, 0.007157227724994159, 0.011439423578726337, 0.0026077426191441675, 0.003985534546798868, 0.0032522357819093598, 0.0011895478114407447, -0.005137195488951919, -0.0012643555821045614, 0.006207103982188974, 0.009619501082622989, 0.004590524373356739, 0.00033730347147917185, -5.823891158678011e-06, -0.00010518922404621386, -0.00039332877792606143, 0.004723915823944735, 0.010616644438369372, 0.00030389949705664, 0.0006816181000999876, -0.0038864663710641515, -0.0020703700515225915, 0.0018053536858915567, -0.003920143346464952, 0.0011169958041096788, 0.0029319843812512926, 0.008151646508776188, 0.007418246873731751, 0.0037847231488459965, 0.009108374518157837, 0.0030671688452903996, 0.004084676621166353, -0.005146943018267706, -0.00021873324256756468, -0.0035877788763773195, -0.010422558219750515, 0.000608882195680178, 0.012825361581610567, 0.011318070679859312, 0.0038035739597364142, 7.294722244378124e-05, 6.445743191682226e-05, -2.7548004358293834e-05, -0.0005745094684758558, 0.0052965597824278406, 0.008505750941017992, 0.0017853672178532742, 0.003999329504694458, 0.0026092809897987385, -0.0029654920389917067, 0.003475387112203833, 0.0019069884110609076, -0.005699785051192378, 0.005650415220335888, 0.008778240716320128, 0.0023798418658485584, 0.006999372950570736, -6.151613297383478e-05, 0.0013764841168295186, -0.0018327818996361337, -0.0018001095280033017, -0.0027814731939646473, -0.004722951483445482, -0.0003213158405698292, 0.00818408775275661, 0.01520159341048939, 0.009706273592207396, 0.002137915624381867, -4.096009981081563e-05, -1.3713428638695178e-05, -4.696315817649716e-05, -0.0007331680727145678, 0.00396247742439362, 0.009765223845704276, 0.005576092683790309, 0.006194631193480141, 0.006762288241735973, 0.009087093809499595, 0.010589901629781554, 0.007450284345468079, -0.0019593592472781198, -0.010819314516481703, 0.001755152097381568, -0.001413422479381808, 0.0040788723423503285, -0.0032317598869751837, 0.0023252949395530832, 0.006950050635630629, -0.0031630100133574184, 0.0007269439753163484, 0.0023394030302989477, 0.0006755714982302645, 0.011355271648603235, 0.009343620065223294, 0.006027980494160541, 0.0019416969178182109, -4.105779287431313e-08, -5.1612514520158544e-06, -9.8138567396856e-06, -0.0005067350889460426, 0.0005354056037303129, 0.006800300348285632, 0.0029102147252705614, 0.006025629235460522, 0.007079720947584149, 0.009644237802676751, 0.007553961828753059, 0.001662003332560422, -0.0033318740731791328, -0.010052247419809394, -0.01103075116506167, -0.019164171365759236, -0.006701948797393024, -0.004938183930828536, -0.0009048170483213503, -0.0025765143892133332, -0.002714053657141646, 0.008157549977005457, 0.003216241459952505, 0.006160017775928948, 0.013158061390151361, 0.006079309564098999, 0.002315630384352332, 0.0010151254464761698, -1.923664827983974e-05, 8.191531667345298e-06, 0.0002164657232380381, -6.657463555569727e-05, -0.0009615391136733548, 0.00022411496761340704, 0.0005430131440141333, 0.00618860771794767, 0.01367600881414783, 0.017982601573617606, 0.011033471713857827, -0.0017217128431549493, 0.0018065371811970435, 0.0032153441245991407, -0.004508731015638333, -0.007431116842821484, -0.00707442788435091, -0.0043882505076783315, 0.003786601293957889, 0.0021627185338519233, 0.004616359401917213, 0.0017237294614639387, 0.008299188570108872, 0.011431198368891962, 0.01239630600348431, 0.0027849504647284927, 0.0005832022524574263, 0.00022743947040193595, -1.0377458232566723e-05, 1.9095204036237446e-05, 2.8452130650539017e-05, -0.000258616150575017, -0.0012187202935860703, -0.0012767289354910889, 0.00014210574696022494, 0.003640057677369088, 0.010722763795240627, 0.010661185820679629, 0.0051443019509481635, 0.004302037105118908, 0.0006860020270187147, 0.0010017744983616798, 0.008393651718024763, 0.0023646478497434107, 0.0032687556927606474, -0.004433904200633872, -0.0010099039153903281, 0.007271261877913588, 0.009741577173260399, 0.007765047110270123, 0.01349168702195907, 0.005941706575578215, 0.00509124060871292, 0.001679559146853541, -0.00018483788163378042, -0.00016006672080215353, 4.526128133851492e-06, -1.89894795064419e-05, 1.325210867041601e-05, -0.00034067769540413814, -0.0011796124318888422, -0.0012553785008718858, -0.0004772553391630885, 0.0017313027402705303, 0.003810769279023822, -0.001550909908884717, 0.000603380071992366, -0.00671865968444162, -0.0022871073539302593, 0.0012188773812214046, 0.0089823610982515, 0.007577043969284942, 0.010924616247548296, 0.010684236988075819, 0.0048907307480764274, 0.009847505927868178, 0.007447088526965398, 0.006247053770517504, 0.0015207150145801534, -0.0029516308401809676, 0.0006281874368263563, -0.0017624740476856631, -4.6459890984600197e-05, -7.735790794232569e-05, -5.4854192298391e-06, -8.502078416075471e-06, 1.7247574789207916e-06, 2.6914192975225443e-05, 3.316273294234383e-05, -0.0006102667033980778, -0.0032874864475407623, -0.005666030843505298, -0.003287781507538073, 0.004284252672913035, 0.007849495197225049, 0.010176705363486188, 0.011504231076669454, 0.008224698267840773, 0.013639087516246241, 0.01336792870895977, 0.007158352568006996, 0.008093951130804725, -0.007870576410383572, -0.008181447139059023, -0.008503565575772446, -0.015365977097217515, -0.012657802500117315, -0.009649533715525986, -0.006752663499988966, -0.002594472561425563, -5.512551190275045e-06, 0.00016089087281957482, 3.2680820290003507e-06, 2.0867075150571518e-05, 4.918026310075802e-06, -0.0001699804539843968, 0.00021733300092171632, 0.00011206691777085354, -0.002552437295489644, -0.0037371054448833273, -0.0019803917893340783, 0.003973419334256857, 0.002595181689870779, -0.0028204303460646297, -0.0055875488646112866, -0.003646743206756762, -0.011042181340905417, -0.008284418074060267, -0.009764125779556295, -0.010514336250493628, -0.018400148887196013, -0.01975741003670484, -0.025656794917009958, -0.02549151445369053, -0.019846095702407772, -0.006512066911372764, -0.0036216114067592056, -0.0009316121163552117, -9.02408586580794e-06, 0.00019144162162903702, 5.179604665519621e-06, -1.6989981297329418e-05, -1.861167104405631e-05, -7.5947446980330585e-06, -4.693280628514244e-05, -0.0006365633712719603, -0.001694993093410656, -0.0024906445049673502, -0.0005875108944027284, 0.002263841488035129, -0.001647926133914796, -0.0014507878597122869, -0.004129433320039496, -0.01036308416502171, -0.007561112856327558, -0.015520799567566582, -0.0064796401462123504, -0.005626132320667349, -0.004734763854771921, -0.01073709819384159, -0.012034227104018289, -0.008936514197185694, -0.005752907588388528, -0.0011214625068510515, -0.0008359489071236072, -0.00011304349633516078, -3.195288953051693e-05, 1.621363166489976e-05, -1.109728196527056e-05, 8.797700191034975e-06, 3.601701705503834e-05, 4.803510594814755e-06, -3.5625448231060557e-05, 1.067963093701281e-05, 6.59127107460571e-05, 0.00022349740382738233, 0.000528650246577567, 0.0009418194093802312, 2.85554174764304e-05, -0.0012240293047316704, 0.00034544572805380545, 0.0017091033310842024, 0.004865912631183522, 0.0012974564252958944, 0.0018733058844624328, 0.004862085122722791, 0.005757561446141645, 0.0013337615122790607, 0.0005977220611337727, 0.0011822310769903604, -6.105715361775802e-05, 0.000552439795649045, 0.00017690866784836947, 3.0703987340933615e-05, 3.875475487342198e-06, 2.823765109666386e-05, -6.897504760625614e-06], [-1.4086387225445978e-05, 1.6873714029761484e-05, -8.997903294530961e-06, 2.614814697129672e-07, -1.4988785077474689e-05, -2.8279299549578266e-05, -5.937612499215046e-06, -9.848387005015856e-06, -3.2580036090510886e-05, 3.3579369138093337e-06, 6.115483254617935e-06, -2.4492029429029697e-05, 1.8219357601334367e-06, -0.00020153797817953244, -0.00018875953493513047, -1.5910671780799285e-05, 5.1949465392128665e-06, -1.6210256987063962e-05, 3.6291790331730265e-05, -2.4599106213337255e-05, 8.88304384274342e-06, -9.10004047951827e-06, -2.7598556554746665e-05, -2.9202494356158778e-05, 1.4675113037507173e-05, -2.0520166202419937e-05, -1.4193088498446569e-05, -9.440646371772669e-06, 3.208621384585765e-06, -1.579758019915728e-05, 1.1371796948054661e-05, 3.1170904185539184e-06, -1.550493102228319e-05, -1.7814308058949344e-05, -6.253160681421453e-05, 0.00015223657484334993, 0.000619723010528558, 0.0008023045545840631, 0.0005413892263451958, 0.00014245462410514764, 0.00010204575919465319, 0.0001597579976371787, 0.0009571483169613486, 0.0008533087667242388, 0.00010137907711107934, 0.0004850448661285749, 0.0007818798412573682, 0.0008471683646930847, 0.0006237151582653867, 0.00044758060960345175, 0.00023412271838523516, 4.052040819096155e-05, 2.2542184970220136e-05, -1.2253608002689895e-05, 5.308759559916527e-06, -7.720496235536473e-06, 1.1963827756581939e-05, 2.1075631705858088e-05, 1.1122279279527369e-05, 3.333935471512642e-06, -6.409487717593207e-06, 4.456524632634389e-05, 6.846779886427609e-05, -0.00010008584013981618, 0.00047153322541359057, 0.0015127201144954226, 0.0036553655258755625, 0.002894156457655361, 0.004739310634869595, 0.007112584224094979, 0.007760346183989406, 0.0077382322345441994, 0.009634661056811196, 0.00873506036941587, 0.007651578716326019, 0.009794125744568718, 0.008614960137721528, 0.008486732165590363, 0.006961830506436049, 0.002820363900110761, 0.0009120895756131289, 5.746347999449829e-06, -4.836747552828662e-06, -1.4765794473234523e-05, -3.754315520069372e-05, -9.042817404988906e-06, 2.09304809865205e-06, -1.0147802438600772e-05, -1.3763555171170681e-05, 0.00064368610477997, 0.0009097797590463538, 9.87862251839089e-06, -0.001759079759245843, -0.001193723376206668, 8.366378221846165e-06, 0.0016423958101938931, -0.002662009629206364, 0.0010616149098179614, 0.0118614405325561, 0.014748834288793948, 0.018826140329140064, 0.02027042204856081, 0.025995081879232648, 0.03440673357501936, 0.03310706773970273, 0.028203195030083433, 0.01921175753218537, 0.009394180663519113, 0.004623321742266396, 0.0004918368247423193, -2.168810228972649e-06, -2.0760367947109587e-05, -2.471808450878616e-06, -2.570957517034673e-06, 9.950179688697295e-05, 0.0006158005912157555, 0.0027643584507521623, 0.004380688243446572, 0.004185186808065116, 0.004926715687630035, 0.006192720014364115, 0.003227079679388429, 0.0007309434513978019, 4.7050902958898074e-05, -0.002968751816227699, -0.0018464050973619292, 0.00036835342454825953, -0.0005769682940484942, -0.001980002658456334, 0.0017624840098620388, 0.011675376014443005, 0.009739364608061544, 0.009520100748042696, 0.007128798552951865, 0.010067155993173392, 0.009448865383749158, 0.004350881651150913, 0.0013058958629914004, 4.522243842778344e-05, 2.4880180411870853e-05, -1.3504794683789193e-05, 7.447721785504898e-06, 0.00040788005456916793, 0.0014272703960133907, 0.002036806530515551, 0.0057629743967962015, 0.00817084251225156, 0.006076316802705311, 0.0065807928506982855, 0.008701006817150286, 0.010785134325937548, -0.004700624396057985, -0.01019404285200684, -0.006118025145512511, -0.007135096899516449, -0.0036835692083732373, -0.0031305549105118003, -0.008550452202595293, -0.009625358404600753, -0.012403419686471387, -0.010477397540217207, -0.013225727946508345, -0.006286300825710187, 0.0057581356423354515, 0.002385214550582788, 9.545123050307231e-05, -0.0005846480291993294, -7.432165962598519e-06, -7.744105040379397e-06, -1.4378846931703075e-05, -6.403486908979249e-05, 0.0013638597524198391, 0.003600341575649748, 0.006621487303725222, 0.010006777822801002, 0.008070880251640902, 0.00671750042477427, 0.006387078105694195, 0.0077264013766183, 0.008967769043628632, 0.0006472689953859497, 0.0023587199219441577, -0.0048165249612898125, -0.004212777558657482, 0.0003151565108573443, -0.002013164054860367, -8.330084335669723e-05, -0.008316404126381302, -0.008289007225168935, -0.008150353639672566, -0.008568947762591934, -0.0072440811268339594, -0.002192620510588112, -0.0020095544647365775, -0.0005139163348742438, -0.00023692037183097907, -9.612105280070703e-06, 4.030385605086765e-05, -0.0003119182098830412, 0.002857201786972222, 0.009697728683343225, 0.011641175836730449, 0.010566023018994368, 0.0025278334162649255, 0.002634428608940018, -0.001134947728409215, 0.0011478968988230926, -0.005720304595063063, 0.0009287742305642094, 0.0009452466897187586, -0.004616887274486688, 0.006825074416444408, -0.0005259360761260482, -0.003110869747283702, -0.001862144709448421, 0.0015802400535003978, -0.0008043437194831416, -0.0037489906154483444, -0.007355407515571433, -0.00835795475245156, -0.005130326874172289, -0.0034579968834299634, -0.0009132270748579606, -0.0005110788673760954, -7.282800006881156e-05, 4.5372004345868e-05, 0.0002169082560328198, 0.0031932564695537915, 0.009072468497387236, 0.01022438649135713, 0.005908578777194595, -0.00190397667117504, -0.003609141609035419, -0.003986367871214472, 0.0015366390636629055, 0.002391735287653048, -0.005971841959450608, -0.002576900957914917, -0.0011926495398482035, -0.002698996727655655, -0.007624540142812276, -0.006424250299224537, 2.152059013620879e-05, -0.003675383523465775, -0.00278960526438103, -0.0006344207580331254, -0.0010086436931873285, -0.011759005073719617, -0.007600889879443652, -0.005490537173282376, -0.0019089383202049186, 4.438533852573847e-06, -4.407218908903838e-06, 0.0002423803799781136, 0.0007955485644692355, 0.0016346530035481885, 0.007841409603854597, 0.004679781729400688, -0.0018062989143761022, -0.0069645174029994705, -0.008116380811685047, -0.007885391281942334, -0.003446215737458808, 0.00039464839671170325, 0.005238271179901254, -0.0019612625249226063, -0.0025311754541988587, -0.00534689465750224, 0.00313386950515731, -0.006675279419764627, -0.004346153165112918, 0.0013865980978532298, 0.0004321851249291433, -0.004558832863834516, -0.00866172272027863, -0.013443880127879317, -0.007376576059326314, -0.006549132831278799, -0.0020002187067145096, -8.372939641205975e-05, -1.2432566919943538e-07, 0.00020266067101934563, 0.0017505321168116502, 0.0036569248894510733, 0.00230558573239634, -0.0005943802037707022, -0.004590238853486474, -0.0028987130988086213, -0.004441530186929429, -0.011379356900681748, -0.008186750789817917, -0.010676734246085243, -0.005286070657723452, -0.0008402603659945501, -0.0058195389675882725, 0.003991333438866761, 0.010422711630503389, -0.002706542452987941, -0.004053670258407998, -0.0014425978166349317, -0.000775561427902403, -0.00419326787073463, -0.00864764705927016, -0.011792151394963611, -0.00799874158483268, -0.00464189484700509, -0.0015927986457669131, -9.950111640385422e-05, 2.113668463455471e-05, 4.1550860711867976e-05, 0.0013857104191002311, 0.0032001742330789265, 0.000562396012721297, 0.000984373666664879, -0.002401086582517774, -0.00018557412921318863, -0.0029678634672353063, -0.002264943401590526, -0.006094569558117118, -0.0004111554142874768, 0.0031205439030498505, 0.002480280516127247, 0.001698307826532973, 0.006023372091005934, 0.015498249348285463, 0.010851135829030833, 0.0009094707762273619, -0.00012526329562882922, 0.0006201034993925426, -0.00012842925900956255, -0.002819857332947843, -0.0052735511721096135, -0.006138314040179284, -0.004288516812369008, -0.0025436654218750007, 0.00016188901023594083, -1.2996673089274147e-06, -6.954012129742413e-06, 0.000692884019580927, 0.0019142437169625739, 0.002662468989815616, -0.0014796551586777856, 0.0028446923728000103, 0.00018108015425698844, -0.0033214414867174793, -0.0009238848125574607, -0.002334928640756521, 0.0009423350158989483, 0.0030773847338847133, 0.005730895355462697, -0.0009431638540198699, 0.0008163683325788874, 0.021084698253857993, 0.015026987878140004, 0.009858461126623736, -0.0009378201801771962, 0.00027563019481552283, -0.003743274946638376, 0.0010843409506583693, 0.0029568854728979567, 0.0012717964720901447, -0.0013631467639799734, -0.0030107864160176905, -0.0003031809537118635, -1.7442723904894681e-06, -9.132251830411411e-05, -5.595829003928198e-05, 0.0017396505700441114, 0.006186604028111649, 0.0016498758363973503, 0.00703209924960122, 0.0060935717034945455, 0.002748307914700009, 0.002301655517089214, 0.00650695763942161, 0.009117918210916303, -0.0007005115313908258, 0.0018190759255059567, -0.005617241896486963, 4.8585612772933154e-05, 0.017766750544791293, 0.022471626606668106, 0.0044284159669192484, 0.004644252401271145, -0.0031587632153282368, -0.0034247649888344118, -0.0010344953754603582, 0.006398034203447438, 0.010528375219119633, 2.9360467258853683e-05, -0.005488758528369256, -0.0021124469762050595, -4.8054716001255116e-05, 0.00031943479113891144, 0.00021852633418123705, 0.0018472953298468843, 0.006133721017735533, 0.002586611256498153, 0.009641418053353824, 0.011702539628227416, 0.011996066509042818, 0.004079775550683263, -0.0059031951528202495, 0.002091827063987391, 0.0009147958518184902, -0.008338727034840822, -0.0025716975940432182, -0.0033567614994015334, 0.010550090602954214, 0.018862016981907686, 0.011031831191299638, 0.00816013050344634, 0.002673827078074345, 0.004366723055811026, 0.008290097496645785, 0.010206430647809699, 0.008293077949234, 0.0016677087934464936, -0.0034757116173141987, -0.00010189596916754107, 2.2449125868655726e-05, 0.0006569049989622662, 0.0012121158794770397, 0.0025117352429577995, -0.000444379052606191, 0.0013089880664548209, 0.00906103141201443, 0.004409583599516193, -0.0002959621754200964, -0.0018100024632217192, -0.0007952134702759228, -0.000731707734523541, -0.0013140687877863353, -0.005293054043852912, -0.00035521544184641783, 0.00931053459453867, 0.007174157564314369, 0.016072285803295963, 0.0072021442957120405, 0.012623843925604918, 0.01209641330920391, 0.01215173882840781, 0.012351911195465054, 0.008143265938781343, 0.0031938516813115893, 0.0006219526886636778, -0.0033339905297978265, -0.0009495168695938925, 3.6735638485848224e-05, 0.0005523967493095513, 0.004333990506771465, 0.004424407280229752, -0.005606785258704466, -0.002213607472339679, -1.7450554779876194e-05, -0.0012703816250719088, -0.001767878323394768, -0.0015598465949748274, -0.00752831785766246, -0.0011524806153234831, -0.0009943613534786652, -0.011619733160441974, -0.0003127362074039242, 0.00577517011099911, 0.005070508455729541, 0.01331519025055291, 0.0017187993168765543, 0.008961386076731064, 0.00593801499276951, 0.0052191931272061965, 0.006079767034866613, 0.0003600900606146945, 0.001326228159620095, -0.0033329616181423665, -0.0019127376852262692, -0.00035558587841763453, 2.8443659219545957e-05, 0.00016499270154991672, 0.005134002896792871, 0.009534398615603174, -0.006742059675725918, -0.011371120757547632, -0.009092354801521223, -0.0038906355031642953, 0.002083696457795511, -0.00188285497594899, -0.002060324962683316, -0.001823060433486748, -0.005080191498905008, -0.0032554771638767816, -0.004228519919007842, 0.0022071353677737444, 0.004765983666868329, 0.00425164653453076, -0.0026024427710366373, -0.0009455296884228318, 0.0007676811638359937, 0.006337041963746714, -0.002218778543456883, -0.0019454932904273733, -0.0110049529867797, -0.0060965286804767, -0.0020549852773840823, -0.00014981884530771385, -3.3044062126329803e-06, 3.507658660140067e-05, 0.004182619950070819, 0.013119788630561496, -0.0021211005870531733, -0.015368001097760417, -0.013344696072316324, -0.009491812519211709, -0.0052145263137152046, -0.006204601669348316, -0.00797445022578083, -0.0019956118856823404, -0.009507044939311508, -0.009788337641237549, -0.00663980063170632, -0.006863118564027457, 0.004224947305571379, 0.005793976240338769, 0.009394983121852824, 0.0026739420932543907, -0.0037670319032002595, 0.0001952612674196596, -0.004947365417381757, -0.011936091256670917, -0.01776242755829428, -0.00539682568898958, -0.000856511098143068, -0.00031453618349301573, -2.294454408730263e-05, -2.6622291492920022e-05, 0.003020963276782676, 0.015114580237983644, 0.004613590633290815, -0.0013107240992003492, -0.007817316155895366, -0.00801560391226474, -0.01316781490382303, -0.01572506629421607, -0.006029687575093298, -0.007291763301447963, -0.00848306981834911, -0.007923220672100845, -0.0029680578471165276, -0.006538696280155559, -0.004443565724223495, 0.002465936519933374, 0.006040370479642972, 0.004590821001194278, -0.002579956482610239, -0.0015297435512598, -0.0071341438929361164, -0.01632113414214994, -0.016269909688662196, -0.004551003120191884, -0.000756656105994503, -0.00014591153192454557, -2.277456063620841e-06, -8.096743946358584e-05, 0.0014246267717551483, 0.0147093860766828, 0.00507312647385576, -0.0023193514539331713, -0.003981656426925579, -0.007989933919941515, -0.007840575673795779, -0.008489955569495377, -0.007310824131507304, -0.0064783824236779594, -0.0038065755322409293, 0.0011422549896554647, 0.00667845300654415, 0.003223309223401695, 0.0029632426287302875, -0.00211845476302002, -0.0023837043206691912, 0.00017186363951522852, -0.0048628772473731634, -0.004388012041991127, -0.012621867162588209, -0.016103182156469883, -0.01296078738481912, -0.0021443731667422556, -0.00041677572467845996, 2.2036249439406596e-05, -1.975218647522635e-06, -0.0001510443578841958, 0.0019124398385760605, 0.008867482497897277, 0.005813639619723318, -0.0028673384007450436, 0.00026171874317926236, -0.0036998289063174816, -0.0021526239166564636, -0.005462459048548483, -0.0034716163413929155, -0.006647106100263353, 0.007166936390533007, 0.001202820130883166, 0.0032448541944091456, 0.0067508616902061, 0.008805055866891382, 0.001326408245447396, 0.008210194364483368, -0.0004915122724387268, -0.01261859642966638, -0.010893645230410665, -0.015595619684923484, -0.015172755898050545, -0.008475039088104649, -0.0030235347960002592, -0.001072595625434093, 9.80496880165677e-06, -1.3944830639419359e-07, 2.995700274214449e-05, 0.002079115761119575, 0.0051230938488366, 0.0038557675482348104, -0.006268302411095971, -0.003804568897676631, -0.001483335099284427, -0.0015025522860146441, -0.001219397320010659, 0.0023498679805118755, -0.0076918788835993, -0.0032272533837698924, -0.005492635195714682, -0.005020705859729033, 0.003463144339730685, -0.0032408276203843107, 0.0007507469112796639, -0.002734921445037718, -0.006784511814256413, -0.011251828085822944, -0.01264457995326291, -0.010078738302104335, -0.007979065117851012, -0.0037362806588318934, -0.0015800636964075799, -0.0002606403792031511, -8.934042929690138e-06, 2.405257943823813e-05, 1.716954557297687e-05, 2.6806412767296722e-05, 0.002071866748258807, 0.00899986881853648, 0.005375618684677505, 0.010765767651733614, 0.011809507463960062, 0.0023433388199318663, 0.0033941173181324946, 0.009933868282073856, 0.005719998787730537, -0.0007143033771098948, -0.01105624905299284, -0.010486404493809928, -0.009903400779710967, -0.019861692029223003, -0.005503419978468558, -0.005641970462019867, -0.008744758247311663, -0.007023889490300923, -0.0041465609671352864, -0.001697663941226657, -0.001807617820118168, -0.0009547295187418264, -0.0010589685512632347, 1.236407225211244e-05, 2.6277320607294913e-05, 4.922694385314942e-07, 1.8409467452130555e-05, 2.3957554297297912e-05, 0.0031380563790660144, 0.012848169932812995, 0.01828252578451719, 0.019223958642837782, 0.020071149000304104, 0.014300527798830856, 0.0072417014701802096, 0.0098465397670005, 0.0034853828814014874, 0.0035166697242882223, 0.00530336634386409, -0.0009519608812931157, -0.0018721708995100266, -0.004508233390305271, 0.00037810364360404774, -0.005662452562209437, -0.004472140826533848, 0.00551202838535922, 0.00751367172679832, 0.002200249536742671, 0.0023455765690003445, -0.0005748226435034422, -0.0006661425275003796, 1.1586899018896195e-05, 1.8850308508564192e-05, -5.679693183011148e-06, -1.1283911229772592e-05, 4.11004428074568e-05, 0.0011470456462246705, 0.0075810368930906424, 0.012801395058711964, 0.014452234156588065, 0.018585472657067063, 0.02124922612309194, 0.02076243659683105, 0.012174567079334437, 0.010050866179800243, 0.010521975214127222, 0.012674985089444658, 0.0085383694286867, 0.014025895001222552, 0.01085948546058722, 0.007574184520265396, 0.00897712866917503, 0.010586234580040868, 0.009901066341897038, 0.006567345562248658, 0.0030291647145104916, 0.0022614931304332135, 0.0001747955247737526, 2.858061507425342e-05, -1.5865255371300486e-05, -4.862883758231448e-05, -1.5830390618514798e-05, 1.9054653030101773e-05, -6.223656489012012e-06, 3.518987486494126e-06, 0.0004297422729225914, 0.002563671533746826, 0.005710554896085138, 0.006185299788282916, 0.006445517625459313, 0.006138970207614781, 0.005297983062461987, 0.006650935171585146, 0.008277702734414773, 0.011798370388558362, 0.013420688962176802, 0.009349155155495515, 0.007264652561183582, 0.006224853733117795, 0.004278395072119559, 0.0018251221793729728, 0.0010394968726138963, 0.0006339300534261484, 0.00015482696399897792, 9.898471246595636e-05, -1.0692825372053915e-05, 2.0074594875861662e-06, 1.4125539994290061e-05, 7.409074442167143e-06, 2.7027640520027046e-05, 1.0233707359007638e-05, -5.1769538106133625e-05, -1.2871439023944924e-05, 2.070454184377367e-05, 0.0001568092651448643, 0.0003842584449413268, 0.000688971008287046, 0.0006931173682191784, 0.0005170093554130174, 0.0010477563485565315, 0.0011525805717167148, 0.0014769757278516446, 0.0009111911605814399, 0.0009964285014287956, 0.0012018697792447167, 0.0007244542618316369, 0.0005401577917149382, 0.0008245770518850087, 0.00012427426196568643, 0.00016121122603848773, 0.00027201844272116204, 0.0005179395094851532, 9.89546833322288e-05, 1.0937297288282584e-05, 2.003675216335289e-05, 4.649535297882838e-05, -6.9205910376168745e-06], [-8.095019785345998e-08, 1.4908600065683881e-05, 3.620946399176608e-05, -2.0475929588625144e-05, -1.6003812024346547e-06, -2.7899568115027324e-06, -1.6612029228554896e-06, 2.1259679042134578e-05, 5.871128441705105e-06, 6.863652649292222e-06, -5.494538506427361e-07, 1.712541085283711e-05, -0.00013559222590217785, -0.00030328119301666176, 3.0335266040562637e-05, -8.029010772666566e-06, -7.585349069398413e-06, -2.3389940050589413e-06, -7.986345878534114e-06, -2.12970902365586e-05, 4.455784097920835e-06, -3.694513513319318e-05, -1.1919543070057888e-05, -2.133626941497383e-06, -1.4278556595932196e-05, -2.7028644176549108e-05, 8.28982351223478e-06, -1.6998652609710483e-05, -1.2190792388087754e-05, 7.111166173237024e-06, 1.530384194998686e-05, 2.032913243291007e-06, 1.89400863233458e-06, 1.2697975676195368e-05, -0.0001895006894070554, -0.0006813666557431812, -0.00229430896972586, -0.0016849838747771434, -0.0014566943150115558, -0.0020405117975323983, -0.002944571112195052, -0.0017544994216906625, -0.001536411766993045, -0.0021843547797687998, -0.0013730571839393312, -0.0014170471942752884, -0.0012140700663120477, -0.0008501099150646052, -0.0005821794274237723, -0.00017840760003244683, -0.00012186702353257753, -0.00013434741811356056, 1.264047686831616e-05, 9.977375329623942e-06, -1.5662427555546909e-06, -7.483532307723954e-06, 4.393341688422983e-06, -9.94344163867311e-06, 1.5423357255723693e-05, -5.53062032467102e-07, -2.2336082674563753e-05, -3.4460366389420504e-06, -0.0001987588759203922, -0.001976703527954821, -0.004023424471151005, -0.004904288573638581, -0.006845840486336822, -0.00801503031762027, -0.009075298140198593, -0.008018109541737631, -0.005827243579545904, -0.0064806301901049225, -0.006901132099765784, -0.005178261714862237, -0.005071958554572503, -0.0036428853745381967, -0.001685258175711222, -0.0019929247634020856, -0.0009836214489252779, -0.0008268416829372505, -0.00038042368418088346, -7.068378880757944e-05, -1.756942550416712e-05, -1.9774365724329172e-05, -4.903267395295628e-05, 8.246207058270019e-06, 5.455170845433532e-05, -6.20217768020059e-05, 7.297262179274693e-06, -0.00019927794621810038, -0.0005836616789933172, -0.0028622632135583176, -0.007706949711195187, -0.009221180247502382, -0.010723905041790015, -0.012597980703628903, -0.014168823566720402, -0.015844472416768424, -0.011756973697338684, -0.009968377269913047, -0.008410148879880442, -0.007528761300185517, -0.005851939742254125, -0.005384228549362396, -0.0028272749432326303, -0.0023373912582059396, -0.0007401228592995306, -0.00046161310434897655, -0.00028586802176573607, -8.74283742942953e-05, 9.618268078346738e-06, 4.6373690052628094e-05, -1.334874344728217e-05, -1.3746663381063342e-05, 1.7280114165413277e-06, -6.31639662095392e-05, -1.6256405621057448e-05, 0.0001196117615623655, 0.00027460296213207213, -0.0030788713451500036, -0.007028795911382123, -0.010609585098402494, -0.00865525214038955, -0.006370415849835523, -0.009997815113374704, -0.009102454484811374, -0.011743779212676492, -0.017346809969046806, -0.011254349980995306, -0.011462584973230232, -0.011821364750695403, -0.004131481386838983, 4.175038645632937e-05, 0.0020691472333610986, 0.002983839654966109, 0.001603260146486831, -0.00031907272318614264, -0.0005199625537032066, -0.00020296221332311357, -7.339793661658842e-05, 1.656364325862325e-05, -5.065870246376905e-06, -4.441736429668161e-05, -0.00027711111344260164, -0.0002575125954230061, 0.0006124123510005011, 0.001197659734943297, -0.0015544225885935673, -0.0005202951967174032, 0.00019775431553674332, -0.00044417504055596483, -0.0008665175788128232, -0.004045263956381346, -0.005255983189109422, -0.004844434060179269, -0.0025389254342806965, -0.00602865520509781, -0.002751110132662487, -0.004297375987727027, -0.0031783335799959065, -0.0064668698019175914, -0.004812705150505384, 0.0017125512839698959, 0.0045950545104161186, 0.002587873245521451, 0.00021785057721762817, -0.0003558792503649317, -6.8344990073158356e-06, 1.816708396539702e-05, 9.696171613608937e-06, 0.00014970260341185023, -0.00024084130181436955, -0.00041403161579139436, 0.002095135266858769, 0.0016489270869157319, -0.002364306897430205, 0.00142708105448783, -0.00021654442519272545, -0.0024538755107802158, 0.0005596849842232868, -0.0008965503671966397, -0.0061269188550044824, 0.004674981983026387, 0.005334168039661624, 0.004409637650564314, 0.00616370499362394, 0.0010538129854038133, -0.0014934736686378547, -0.0007341324939997184, 0.003978708989015768, 0.001527610912803155, -6.0930628574860396e-05, 0.002456658660156186, -0.0005719973041624679, 0.0005926423234843667, -3.5714418294948975e-05, 9.095531636482555e-06, -0.00025616209269617744, 0.0020900672892610185, 0.003956171965180888, 0.001698240013144692, 0.0009173868588169936, -0.0005371885933773833, 0.005385292274908691, 0.0002251499907761597, -0.001210160347017215, 0.007012206930879492, 0.0027169296890921404, -0.0019253514673173238, 0.003302470229887345, -0.001267017474364887, -0.007069653926440941, -0.0007011206603926746, 0.003655408065557786, -0.0010087188171969302, -0.0022301490744345257, 0.004448657884179779, -0.004377416113487941, -0.0035271799559798084, -0.0009449511436837518, 0.0012611224447426704, 4.619507296496817e-05, 0.0007949735695217346, -2.3876370514005852e-05, 1.5913551809463467e-05, 3.265464155715826e-05, 0.0021812177632270094, 0.003860464041668579, 0.0023987709836772674, 0.0073648288149698845, 0.004149650315520183, 0.0018705808982161162, 0.0023731700933955603, 0.001171767891295387, -0.0016048019043471292, 0.0038916082338203437, -0.0004866283198727581, -0.000870511134002124, 0.004805148975475658, 0.00018015181554526514, -0.0015643075567114977, 0.0024670919419991716, 0.006854424227228823, -0.005618770695873843, 0.0017232684081608402, -0.0020734113770666603, 0.0011369886672351948, -0.0003088770163382898, -0.0018350461458064731, -0.001632934054411465, -0.0023064986124802897, -8.97381005326423e-05, -1.2224455426515104e-05, 5.504871017545212e-05, 0.0014310433587706951, 0.004134196780367519, -0.0005486353345487911, 0.005383938311640829, 0.0026397850972846985, 0.0009062954933944133, -3.774861579143715e-05, -0.0021396048007812207, 0.0016777461806991578, 0.0029680010365435187, 0.00839350737057515, 0.004110501181209339, 0.0014954307403860002, 0.003304088808055149, -0.002696190199821697, 0.0037720562228813394, 0.006079910720964958, 0.000216027158751109, 0.0030837256004701825, -0.0023241118158481427, 0.0012851849015211116, -0.003915150484323507, -0.010723819875415546, -0.0070362205049731, -0.002860653950203198, -1.661701777967697e-05, 2.140903979178199e-05, -6.459958974839637e-05, 0.0017513406765894178, 0.004004139689331852, -0.0013177520340987355, -8.289045203370274e-06, 0.00017681787526625518, 8.28785786732328e-05, 0.0038436487012330914, 0.006322477037747985, 0.005370019678259009, 0.0010550990421691433, 0.0033754937897546976, 0.0050664956249203644, -0.003154957103984698, 0.00615307408731264, -0.0002557648237003665, -0.0005391783455632997, 0.004399698312168378, 0.00504518647688104, -0.0014507368274073432, -0.0005042496749871296, 0.0042492535468606025, -0.011343066493333895, -0.015747185913087033, -0.007550009100976104, -0.001917609213682497, -3.969664026357118e-06, 5.7813601423952254e-06, -3.082997160019521e-05, 0.0006609239558367839, 0.0013610684127764497, 0.00341993179278007, 0.0010135884459187903, 0.0013672078080783892, 0.003937297011913175, 0.007506465029694621, 0.005443302552077428, 0.004687330345773427, 0.00434451518298716, 0.0024122988262535406, -0.005460079744000972, 0.0011575433151947941, 0.009986521245092382, 0.011772245454273403, 0.007416237214902156, 0.006196115212788718, 0.005045910323705225, 0.0017994156188211345, 0.0021347322858083027, 0.0035873144940772803, -0.008942507093211578, -0.014753245218447241, -0.006301778538397556, -0.0011955255447012505, 0.00013502387849085548, 3.616978583086099e-05, -8.871836292987486e-05, 0.0005708341732012425, -8.982284862082564e-05, 0.005682497389399626, 0.000707961473740179, 0.004963238089459069, 0.007417034734564484, 0.004794817559452873, 0.0041203498809286926, 0.007341129648144451, 0.009136345756312229, 0.0006754910477009898, -0.009872926806732386, -0.0067356437917187794, 0.006902787759807315, 0.008734435192738556, 0.00854119123139424, 0.010456551875933636, 0.007366632675571384, -0.000141027203662884, 0.0008220753589670889, 0.007347393258932023, -0.003327744107984555, -0.009645974382921668, -0.0026157429163768497, -0.00020321240477425535, 0.0004223839916971302, -1.2622506539479173e-05, -0.00028558888998046403, 6.1838672086382e-05, -6.8529874329418e-05, 0.00626497863174696, 0.005556835710933187, 0.005273265989729684, 0.0038030540795863247, 0.0016863236582766615, -0.0026715867982359046, 0.00435409600420756, 0.0011395909138189047, -0.003221821847700635, -0.01076212970421244, 0.0003553209714308499, 0.006217235899973851, 0.006754245991425713, 0.008491998903823917, -0.0022672922548367964, 0.00615375267982106, 0.00928570116947072, 0.005350710931788036, 0.0016395405177758926, -0.004873776020377309, -0.0022018222931922643, -0.0027885251125998396, -0.002313994527969622, -0.001004166392649043, -0.00016462515250181497, 3.531983876188985e-05, 2.4320446767977025e-05, 0.0015359461376686916, 0.007040369370768177, 0.007108661493229697, 0.00535281518379107, 0.003215679691536141, 0.0021034333232993643, -0.0003574447374920357, 0.0012506974951938794, -0.00025797863932402576, -0.0062293710615061474, -0.00821210272495013, 0.00102884409971622, 0.007904384362464486, 0.010610203482158319, 0.0067779877553154795, 0.006308559730762152, 0.007513408456159191, 0.009758525933810281, 0.0029607634393483103, 0.005627125137627837, -0.004874797049899615, -0.004505977957313119, -0.0012939158928707852, -0.0011103731609228764, -6.438346229191661e-06, -1.581251527152005e-05, -2.0007991897230292e-05, 2.1622812940600467e-05, 0.0015921278174217935, 0.007402349997647074, 0.0027195784483716474, 0.0029073702565278916, 0.002466260381465592, -0.0019662603731911052, -0.0014728645997553887, 0.0012487449938556009, 0.003324956818998445, -0.011967148790612623, -0.008752877581544643, -0.0005157541135931256, 0.007505862950369175, 0.004821585164867498, 0.009122693248714345, 0.006004642922708226, 0.010776304400611492, 0.007995202015354903, 0.0017303504318595612, 0.004811542822148094, -0.006716939379332707, -0.009411172527717676, -0.005640476124846381, -0.0019973182961221998, -2.1019470337805436e-05, -7.51957262567477e-06, -9.589770900052906e-06, -0.00012777519471089278, -0.0003206903836511725, 0.004850188204518749, 0.003055642380925006, 0.001798563077773797, 0.0032361227440498483, 0.006255635229674151, -0.005926249228343951, -0.005336685184497214, -0.004864290428745959, -0.003165029249371432, -0.0026345053261306183, 0.0006758634964004182, 0.006401004247395385, 0.004767900243094994, 0.01127380915388694, 0.004597919826490168, 0.0038775296937511696, 0.002624063570878225, 0.0012737157965775172, 0.000892159276151813, -0.01195257550872881, -0.013313035861667946, -0.010716740158833706, -0.003990642603083226, 2.9958570448617546e-05, 8.953275760766585e-06, -1.4123687895545542e-05, -1.578575235680485e-05, -0.0026950030020053547, 0.0002934648264014724, -0.0012951404612678813, 0.0025243407959372344, 0.010848841149819254, 0.005024319728096555, -0.002130255689370627, -0.0016581532757703628, -0.0016979580812331505, 0.0005710690605859607, 0.0038217445978653833, 0.002948715819888889, 0.0062712441082766, 0.004668674433477064, 0.005201952350357117, 0.007127283133363713, -0.0028065474723507166, -0.005183805700100106, -0.0027360508493246994, -0.008303630476424241, -0.011067363336158705, -0.009243238586540177, -0.006592385894358032, -0.0026279433602568038, -0.0003014493960724525, -6.609586438174978e-06, -1.7687546537627345e-05, 0.0002450800568954218, -0.002533358096189449, -0.0006373413864246038, -0.005405302058248382, -0.009181305314191117, 0.0024121494806333085, 0.00024098540660823708, 0.0021799508690801836, 0.004583957416223415, 0.004573801891488467, 0.001538578411361893, 0.006708338434279355, 0.004131098501554743, 0.00395364362372577, 0.0019012254659681919, -0.006062984601978187, -0.003494865997393596, -0.007985466428209713, -0.006098962679867667, -0.0030641615895239454, -0.010754275873316534, -0.013828441314405469, -0.0041644014390781955, -0.0018565945383846904, -0.0007103415740944456, -0.00011538809824177936, -3.853447065071411e-06, -0.00016904173496245739, 0.00048505476120744485, 0.00012183527737351797, -0.002582290614185896, -0.0073331015034797335, -0.012876532109394627, -0.01187341909445552, -0.010716684485065133, -0.01736508647074148, -0.012608893179064325, -0.007317037786860654, -0.002357360987447241, -0.0027853210453556887, -0.005222504333450724, -0.008323805526104958, -0.014341751158140138, -0.01674785205708994, -0.008424231863687888, -0.007049807439727898, -0.007855596951857488, -0.009709785102979868, -0.019196283410557256, -0.015576858428813095, -0.004535069590013911, -0.0013391381367021233, -0.0001378330492707722, -1.018417886855078e-05, -1.8288461779666665e-06, -0.00039369104158842487, -0.0004711583446081525, -0.0024468253702031296, -0.006500343404641477, -0.013953183275322101, -0.020308635881145724, -0.016188944370688563, -0.017222830698706712, -0.01800616263189721, -0.01969285756391374, -0.019052119334073015, -0.015360293515546984, -0.014043611850646323, -0.00998683700048329, -0.013150540625119955, -0.0072164246784966095, -0.010362786657449299, -0.013801173722148037, -0.015208083532289019, -0.014219549282129325, -0.010065399803314178, -0.011559991168595473, -0.010055668872522232, -0.001118971098649959, -0.00037586703839649193, -0.00034761996243716395, 2.1657109034111417e-05, 2.8817797906956936e-05, -9.580435486442751e-05, -0.0011351332957533417, -0.005224265650989302, -0.006612434885700918, -0.010559468937561212, -0.014679939877297475, -0.008798779455710845, -0.0037592442871295715, -0.002475676177357262, -0.001411323003831738, -0.008063872046106065, -0.0049006648473570525, -0.010341348470140331, -0.00753433311153857, -0.004449535069324628, 0.00013351064330965846, -0.008743748456352713, -0.00819118822262484, -0.009088112274645845, -0.007675398594555367, -0.007875415251780522, -0.0074604238340663905, -0.006040885936647918, 0.0010631767106071225, 0.00038194453731174436, -0.00011953989916478718, 4.0940303029700275e-05, -6.078758418442407e-07, 1.5976612198745563e-05, -0.0015693881741376072, -0.004174123668177396, -0.005913149620294815, -0.006134170875119327, -0.00739709473691224, -0.0011503065019365202, 0.0015461773383147368, -0.0023983322256057866, 0.0036903068276756706, -0.002475778835676145, 0.00014529665457779109, -0.003443687637226095, -6.61414859145572e-05, -0.007774193725891388, -0.00017737553920785644, -0.005440650300784622, -0.00031417145572492175, -0.0038885446669211475, -0.006913734138294628, -0.006417744681756731, -0.004197318459125115, -0.0033656649826871196, 0.0006695861499140418, -0.00014013735231419906, -6.051361803664931e-06, -1.3104782816562176e-05, -2.2469889289341803e-05, -1.3383511101644496e-05, -0.0011993721647918106, -0.0031644498480003416, -0.002854028504179208, -0.003409520239539031, -0.002946689724391851, -0.0012029368102173198, -0.0007082247094706153, -0.008342702876035503, -0.0020498243881033806, -0.0037245762395187385, -0.00704261249145655, -0.0031113628910132193, -0.00012805431529843615, -0.01046179740471439, -0.004490761447711943, -0.003082813871457617, -0.0003871829406439409, -0.0008552648895321528, -0.004604631962570351, -0.0034487118742752942, -0.0004790262805842969, -0.0011478037143931176, 0.0005863097674823544, -0.0002769021249806225, -0.0001254574695119821, -3.4468410973141e-06, 1.9225694304984433e-05, 1.1970366553841697e-05, 0.0006917797015515607, 0.0007044630174716671, 0.0021902918945080033, 0.005562414783644997, 0.0015820837819938737, 0.0003863031191568117, 0.0007505227980441967, -0.005248587325916994, 0.002407161635935047, -0.0013643143410166849, -0.009077023241023142, -0.0075057930134292536, -0.014020277327395785, -0.01360689938207863, -0.014823847205190924, -0.007297840076475505, -0.006700216199659545, -0.0031117576998814316, -0.0019432907720348133, 0.0005089555431301316, -0.0001468132466441352, -0.0002915434187348804, -0.0002528459999717707, -0.0007034213358026754, -0.0002442728687746854, 4.323724384713579e-06, 2.273239841737137e-05, 1.3581934106525863e-05, -3.091065577104794e-05, 0.0015794222058210896, 0.0026774436894937514, 0.00457752841504563, -0.00036875874257008426, 0.002359130538591989, -0.0028126960198880837, -0.0016259279766946116, -0.005214471884639279, -0.000730737979445781, -0.0013397757339421795, 3.6261878382446176e-05, -0.001417298875808472, -0.004886463647331985, -0.004515819373430458, -0.007557348140849438, -0.0038086855721073715, -0.0028597301524944854, 0.0017760283150404343, 0.0014003502326153535, -0.0015456959741167856, -0.0004156614132846915, -3.5740054903679774e-05, -0.00022542084783607827, -0.0002755661660458341, -1.572507669821467e-05, -4.750049964837863e-05, -1.701689743129852e-05, -1.4112506209299878e-05, -2.093490638954326e-06, 1.476400973691468e-05, 0.0005810060065190764, 0.0012889385184002126, 0.002722709651888518, 0.004087375422275752, 0.006469740038562685, 0.005015395063552358, 0.003985923302754116, 0.004331323785780928, 0.003259940406950918, 0.006120548911646281, 0.0036260405530642408, 0.00048365190875328636, 2.820798583174339e-05, 0.0006072470449854332, 0.0013236820168849256, 0.0016380276014581162, 0.0004033754736487112, -0.00023101298218472483, -2.8133857211985656e-05, -3.1150057559882016e-05, -6.730531578129325e-06, 3.238744274273419e-05, 1.0606967894096517e-05, 3.834965280216295e-05, -3.065470197604244e-05, 4.957038738329214e-07, 3.7391719279017035e-06, -2.2176018761634203e-05, 4.5818741540521e-06, 1.8734997112799823e-05, -2.1043676520248928e-05, 1.8642816925967278e-05, 0.0003631464212893883, 0.00034085927311833524, -3.610522677229276e-05, 8.610740175895138e-05, 0.0006909346501902015, 0.0011019237979324463, 0.0002846125360466515, 0.00011236266971299488, 0.00014613795183138323, 0.0008062061569171045, 0.0004913660349306208, 0.0003471498722978575, 0.00012169324612878633, 6.065172954704239e-05, -2.147102753079769e-06, 5.968622906065791e-06, 3.164367367339993e-05, 3.558472757807244e-05, -3.425441018818445e-06], [-5.81186888545133e-05, -2.2983016419985746e-05, 2.7916836149907113e-06, -9.876591430348426e-06, 1.917468075633192e-06, -8.71151562668865e-06, 1.540504871412272e-05, 9.194816039933396e-08, 1.058302770992984e-06, 2.7062353600970793e-05, -6.593170980285658e-06, 1.7340660104448829e-06, 9.470334820980567e-05, 0.00013163334365780618, -3.193523876935223e-05, 1.4640140797741427e-05, -7.176049095637335e-06, 2.1087170180420446e-07, 2.335432155642867e-05, -3.425916316509656e-05, -1.5326739128078056e-06, 1.902088612459291e-05, 2.474265367906734e-06, 3.2569726345361934e-06, -1.5001411040300118e-05, -1.1384646471272095e-05, 1.811779415606267e-05, -1.51827824792031e-05, -1.3184883054114468e-05, -1.5637618030551686e-05, 2.6865762365050416e-05, -1.686518626542389e-05, 2.036505667519335e-06, 2.157822919620525e-05, 5.791663713669732e-06, 1.6457382311110865e-05, 7.021285422823301e-05, 0.00017551322957470896, 0.00012071821408829888, 3.568285122224962e-05, 0.00014098460191557912, 0.00030145657330786903, 9.469545778713688e-05, -0.0009236678937285508, -0.0012791990067355997, 1.2169548883255607e-05, 0.0002446338809642396, 0.00014409979639875835, 0.00030055498435857205, 0.00033685301133134674, 1.9564784982385067e-05, -9.933775258551853e-06, -1.0487238102976952e-05, -1.1786423190652423e-05, -2.1236752008895088e-05, 1.2950592644722666e-05, 1.3411987454884774e-05, -2.3357264944778895e-05, -1.0422755453717772e-05, -4.1270709318807523e-05, -1.1498718976036795e-05, 3.851038530537906e-05, -9.982257390918738e-06, 1.2621619835953743e-05, 0.000165201196991579, -0.00033492119864899484, -0.0021009441627849986, -0.003230666671582492, -0.0014373155498471318, -0.0003023720395345536, 0.0009443572028679652, 0.0002681751808881961, 0.002966014922308841, 0.0027726412391435172, 0.003911064614081783, 0.005984981635062533, 0.0022311113759076076, 0.0024113469655196056, 0.0022824914055606335, 0.0009148917015031385, -0.0005163052472565938, -0.0004501825147236408, -9.8341144611939e-07, -9.6925999685136e-07, 3.6475504382572837e-05, 1.847025693539758e-05, -0.00010535910837169521, -2.5294933695481054e-05, 2.026116693456101e-06, -8.71276440682147e-05, 0.00023767151901218537, -0.0013578543985084668, -0.0026461786207516084, -0.0036240342211995005, -0.003921087354583242, -0.005427217565163133, -0.007256819405152296, -0.004890139664235836, -7.192077311422496e-05, 0.003093006468402616, 0.001343503720099355, 0.0033321075658415524, 0.006496943851251783, 0.008022735664036888, 0.0097502513064853, 0.007235124114263092, 0.005662145177606558, 0.0032936352516067533, 0.0009412598097855851, -0.0003598861864692465, 0.00015624617537558837, 6.5332807965929425e-06, 2.3328209434552462e-05, -2.817050241840797e-05, -0.0003002004447471256, -0.0002369282055985621, -7.155624653181577e-05, -0.00034247212413620595, -0.0007186631010534393, -0.002277649203742567, -0.004947093793638545, -0.006830011383729853, -0.008150981956085867, -0.009550980187681113, -0.011918869017179517, -0.005864992166575041, -0.003978779085208055, -0.010654788452061813, 0.001883004039649261, 0.007339036388663676, 0.004257604530058, 0.015282661311092845, 0.017269740912627195, 0.015976455725110722, 0.01273379773624968, 0.009615231086304124, 0.006185812334985653, 0.0022027801083859774, 0.00020599339165467572, 3.805302529429329e-05, 5.677147978973033e-06, -8.921481336754708e-06, -4.652074360722732e-05, -0.0004440983220175257, -0.0006756917995038883, -0.0005763347670834213, -0.00046165470440484916, -0.0037779377786427743, -0.00699962459873009, -0.008266567077754484, -0.007731475510268118, -0.008294593373678305, -0.00304556824969691, -0.00721631929195552, -0.005247934474442258, -0.007486237413218199, 0.00579254192598482, 0.0034325320041997654, 0.004483585501440582, 0.0010663320987171127, 0.0029832412206314673, 0.007553653660910501, 0.013155541406168673, 0.01810155857885116, 0.010893500156206399, 0.0035113946067001564, 0.000815752035298565, 0.00014242262348127836, 1.123225185640247e-05, -8.422886480641437e-07, 0.00011386878148529595, -0.00012385955030116974, 0.0009407663331201952, 0.004361274748005199, 0.004294732470120441, 0.00203005107500088, -0.006218768331490652, -0.010130541991335455, -0.01850636825832307, -0.020654213596973923, -0.025488046749454405, -0.022095273542524926, -0.012465355492620782, -0.012142759262751391, -0.011650789775661101, -0.0078115870484964664, -0.016247641567784604, -0.010422573437960046, -0.013296991720684014, -0.009727137688923774, 0.00293702421652109, 0.010346875372210473, 0.008151478655287068, 0.005736583361092306, 0.001898646796283555, 0.00038930666753391087, -1.6594597193214116e-06, -2.4022398920827965e-05, -0.00047411583865771944, 0.0008815892957025163, 0.00392526721563269, 0.009670345977854907, 0.01231999822742091, 0.014498286294192227, 0.014217983814781945, 0.011935563856977976, 0.005463319989272801, -0.00309625035760034, -0.021492107170674006, -0.027548421004291553, -0.02989768840351255, -0.025213996085108235, -0.02040933956334737, -0.013247736480552805, -0.016504092408163813, -0.006192331947811567, -0.007143183233143112, -0.006802375000850741, 0.0014450887964624504, 0.00836827007033188, 0.009903185689080662, 0.008438765873145319, 0.003027554421934631, 0.00027320992319298723, -0.00016987180985725045, -5.288432620090349e-05, 0.0012806792023595307, 0.00354262295418146, 0.00820178399730103, 0.013777448830485383, 0.012033925848535593, 0.025883304670357134, 0.02018755007576503, 0.014073071687340857, 0.013501776578210624, 0.017538144267175208, 0.010495879840004618, 0.0010349516769581593, -0.017912431346150944, -0.01422850188895771, -0.01996146212996772, -0.0031873383059366437, -0.0012686005576771978, -0.002748749219267087, 0.0032457111126759862, 0.00013853615677523052, -0.0013337117744823734, 0.006871255192534081, 0.01289077362546003, 0.007673415435097803, 0.0021526388771918614, 7.164467713749848e-05, 1.8887046505856851e-06, 0.00022932534425833162, 0.001447491972249744, 0.002138781754640287, 0.011216809216259133, 0.012850698281252347, 0.006942272343847813, 0.018313441957435474, 0.015804377817060372, 0.00581518415960985, 0.008766370497059006, 0.01511022406911855, 0.010080050804545295, 0.003967068655631825, -0.004988678997097886, -0.010685093708921756, 0.007204993379158782, -0.001851663997929764, 0.003804052749411384, -0.0003554708320799258, -0.001955736280785133, 0.0012124870913516532, -0.0015904094727738096, 0.000514166989120813, 0.004424164534999412, 0.006139845832580419, 0.0005559904564818664, -1.763081418641382e-05, 1.5286424643899625e-06, 0.0002470869213340623, 0.0026102161545163757, 0.004756380880728942, 0.01133711892238025, 0.009835464689750288, 0.005072757052010908, 0.0032230298282163138, -1.681750283687309e-05, 0.007164272834889205, -0.0005535215196258451, 0.0002284051569471229, 0.004290351514676884, 0.015642752084212314, 0.011832473684122229, 0.0097204944493468, -0.0042477232426427316, -0.0032002430545662874, -0.0023996228132815056, -0.001739358647542639, -0.002984195671500251, 0.0005896229801118035, -0.002708673394747113, -0.00957441497302772, -0.0002309185398811691, 0.0019072711700958342, 0.0005959244591630648, -6.318477841870484e-05, 1.9856235136042176e-05, 0.00014460589497917268, 0.004936962679467314, 0.008453263199818916, 0.01155151850382818, 0.0012925481778154292, -0.005215033678090184, -0.00483179080086279, -0.008934404861583077, -0.006491312810048843, 0.0047099521553664895, 0.007520328564992884, 0.015968886795756518, 0.011979155239460798, -0.00438579916279514, -0.002189249145909675, -0.00465327443951645, -0.0031279234395843055, -0.008807560978849731, -0.0001074144415429072, -0.008712780142024546, -0.008229802061387287, -0.005578154376554807, -0.00988742746187091, -0.007115847968984535, -0.003345044658410616, -0.0007468570799225187, 2.008552124541724e-05, -1.9835095884315162e-05, 0.00023083571511202231, 0.004733276245095333, 0.008297699153746401, 0.0025579346111955074, -0.0035552416749143035, -0.00886744505557753, -0.0032044153103269516, -0.003262081595013182, -0.0029057669945446217, 0.006010427459788646, 0.014358238654365621, 0.016932285063876465, -0.004857638940286612, -0.018085846645310436, -0.001914960573793258, 0.004770170284353276, -0.0005478101721081929, -0.005820459172103252, -0.0009572691378990026, 0.0005844251310563242, -0.006929206904741904, 0.00023445137562522357, -0.002569956438754251, -0.0005122059794170039, -0.0013172411009836054, -0.00013665349017067576, 0.000149838958757516, 1.1123077986951908e-05, -3.0044374653584654e-05, 0.002735421735518149, 0.0038042419906410595, -0.002018795032513004, -0.004603611852055862, -0.0002917929341956257, 0.00024571162877108356, 0.0025194888555014074, 0.005728194477512354, 0.005082408932038745, 0.001542019565950735, 0.0019280097330768562, -0.00813212413025484, -0.010297467947226838, 0.006335849869332192, -0.00196171384143063, 0.0035664793776028717, -0.0067129629816209254, -0.0002187188408311516, -0.0009809707571060125, -0.0031606739274829955, 0.004996830506053621, 0.007874448288020983, 0.006879089264884084, 0.0018890328514216254, -4.0344252390549316e-05, -9.92877201363262e-06, -1.8455667568507125e-05, -3.945339207053828e-05, 0.0016806287752953344, 0.00116912103987793, 0.0017132577397336163, -0.002578123804941536, 0.0056432179959847025, 0.008091253158420669, 0.003318420508569363, 0.0033232015688233942, 0.0022097330743521396, 0.0016089864132816623, -0.004263717698948343, -0.011232992983010259, -0.005270569301467165, -0.0008462232370364345, 0.006760905842578857, 0.007605166570637035, -0.001489151244026864, 0.006806082526675216, 0.007502683297396097, 0.006111404290585938, 0.009461126959202279, 0.008282403651015171, 0.006809029868420051, 0.0054331537473978125, -0.002248224178560533, -5.7331747208801505e-06, -1.3247608559069803e-07, -1.6997943720409134e-05, 0.0003351638101279876, 0.0005762907825648984, -0.00453454355268571, -0.006900611763265248, 0.008951998838226824, 0.008108140576704595, 0.0036737787039183415, 0.004632747185429627, -0.00526037139363545, 0.0036509457572832782, 0.003924194709541849, -0.0037712948835157607, 0.0014510286714328896, -0.0013774652649411474, 0.0073294522714461826, 0.003200425534693627, 0.0004337616841876823, 0.004294039217418572, 0.008380610648615094, 0.009522236699684408, 0.0043791770883833065, 0.005011281652289187, 0.0020562147240006288, 0.0036640463069484504, -0.002775333398364938, -0.0002993549520577053, 2.0189939943631832e-05, -6.529717436928579e-07, -0.00025681706210141055, -0.0032806312410448577, -0.0068292885970550445, -0.0034310398614596396, -0.00031763894290095585, -0.0008712113010896876, -0.0067883003398267056, 0.004276632155204644, -0.0033871533363383378, 0.002223671036667717, -0.0018362566598814072, -0.006838729429541863, 0.006346238508011885, 0.012138064110679895, 0.0035963851299313137, 0.00707454035228155, 0.008143945768963587, 0.00934788047035745, 0.010527700646016061, 0.014159845519242013, 0.005310439578264491, 0.0006801424750219135, -0.0009343954409029691, -0.0012194908151824718, -0.0029964329119148312, -0.000993886128524725, 1.2371301977585069e-05, 5.929684614189978e-06, -0.000668886481019581, -0.004723845889811806, -0.004706709795965853, -0.0035312633967675136, 0.0038031031756792844, 0.005958539417187862, 0.000170753755970803, -0.0020381841340065053, 0.0010493033513744982, 0.0062062814887591435, -0.005810187721167897, 0.003581831332002569, 0.009139237629767956, -0.0012373474667534458, -0.002605227412796205, 0.0027723551800331106, 0.005992067742104564, 0.0017983696049794064, 0.0020446830945964095, 0.006093282228064573, 0.0047007805112315336, 0.0011690700628119136, -0.004399109945445049, -0.005931124727646311, -0.0014096929508774472, -0.00017873087707323624, 9.959029740135402e-06, 1.555935860732394e-05, -0.000723912939260665, -0.003885593786776371, -0.007407706208975235, -0.006035045789015013, -0.0012327371797377445, 0.00441554157594424, 0.0048364545963424715, -0.0024545460415235144, -0.004043467800593352, -0.007436073618007593, 0.006594904362093772, 0.008684918461685285, -0.0011997640755547479, 0.0013549742777970288, 0.0033191657938492496, -0.0010003684982296975, 0.0030501760326763663, -0.0020309070661523863, -0.005466402523248047, 0.003265117540596497, -0.0069511783520432085, -0.008455064769872235, -0.006929898368695452, -0.005147848892136093, -0.000569435329099432, 2.5387591571328655e-07, 6.496936366001498e-06, 2.2024831727721944e-05, -0.0007636923586008452, -0.002732457666488279, -0.0075463842496925095, -0.015993940202777238, -0.005505047141767459, 0.001422605842846602, -0.004172740082792193, -0.0002898650819859133, 0.0017058216871833178, 0.0058186439316155955, 0.0013781379965253728, 0.0021744123479135323, 0.004256653212413948, 0.012198894446844782, 0.004316334311598473, -0.003348536348637234, -0.0071091601680712884, 0.0023500721312180333, -0.003955641578459094, -0.004173567873039605, -0.010057103533013386, -0.012468636478544466, -0.006314005241764886, -0.0022597139458658943, -0.0005370317756983659, -2.4704257279095153e-05, 1.549345161491192e-05, -4.00948937565662e-07, -0.0005884296248420721, -0.002006699625892001, -0.005981041280966704, -0.019960897275802553, -0.018132354844643844, -0.009920727135246022, -0.008915618590275303, -0.00520612328254628, 0.0022903704215643025, 0.003828307184678749, 0.006790668861028034, 0.006497129786266457, 0.010270926635068334, 0.009079592328832615, 0.0073142370754605, 0.005026011245110471, 0.0018948444770179843, 0.004665447203985052, -0.0038305392511322873, -0.010611664071806064, -0.012054247348434688, -0.009775442942237693, -0.006178290229065223, -0.001163258427435029, -0.00017079827287130704, -2.5591886698029786e-06, 5.882210745288649e-06, 1.2382831122490963e-05, -0.00027537527475592516, -0.0009994917512101392, -0.005196438335067288, -0.014485963852649518, -0.023877386859762408, -0.013833909175022164, -0.008850770142964037, -0.0073179646269645356, 0.0015111488058844856, 0.007972522402356002, 0.011367639510039544, 0.010924950485758715, 0.006301148013692331, 0.007057171928512802, 0.004260464598298886, 0.005650268545982319, 0.0015775691467879438, -0.004748840407155935, -0.009102208150165667, -0.015106330437575402, -0.011452140131804083, -0.009863501110993355, -0.004644422371520917, -0.001015186869529268, -0.00035585528808792827, 1.735994367197117e-05, 2.979599421325265e-07, -9.66371902954006e-06, -0.0004180989160470771, -0.00036985954768585375, -0.0029299114971407777, -0.007945423924398775, -0.01363771237314769, -0.012651341989259908, -0.011699198089536436, -0.010255578384580433, -0.0013052372429579484, -0.004963174833505119, -0.00403430713337112, 0.0030303100353330004, -0.006121689244276492, 0.006362516246429191, 0.002732719207737505, -0.0015692327187085302, -0.005808585339456475, -0.0015565427418954626, -0.0015965713279533708, -0.003518216678916034, -0.00504537034634076, -0.009530621386196484, -0.004325755735733232, -0.0012419466547018223, 6.205096313794271e-05, 1.1595103178645947e-05, -2.498798544794503e-05, -2.1441535141660714e-05, -0.00043319410740038153, -0.0004822448558205155, -0.0009080761288377342, 0.001742786080596031, 0.0034128202632175047, 0.003016028317036648, -0.0011872153933622474, -0.0011505152681397046, -0.009254563803732074, -0.01260482749672185, -0.010942271411386432, -0.010507179125772884, -0.009147706318544698, -0.001744962739737486, -0.0020967768387367427, -0.0015552114174946059, -0.004851455651463963, 0.004130828384799528, 0.0014872267643139183, -0.0020123994744733033, -0.0040308406634110725, -0.00542653974449279, -0.0043258073745766545, -0.0013569815602590249, 9.574621380045537e-05, 2.1646262603522236e-05, -2.3497892618676923e-06, -1.6022769426965687e-05, -0.00035995297409559956, -0.00045802283727194523, -0.00012417237927911883, 0.004075363340329539, 0.009794073006289658, 0.008675514352576984, 0.0043893613779303255, 0.009224355327253443, 0.003709326012427581, 0.0036416821808450163, -0.0015278335077950666, -0.0014756461374855591, -0.005550645732306736, -0.001196622850974647, -0.0008907516291060583, 0.0003735673638052112, -0.007612036876783047, -0.003219746928348768, -0.009967284912052848, -0.007395772711506075, -0.004311798394176432, -0.005222218272331347, -0.002689006107857225, -0.0008785238957405479, -1.0058057206396097e-05, -9.793940012674427e-06, 3.3772904302658676e-05, -2.7176922356743556e-05, -5.635075984274189e-05, -0.00018710110538636252, -0.0011568400780154954, 0.0016125846971121055, 0.005564372358383249, 0.008658189694022631, 0.0022761329298787566, 0.0025386219562194548, -0.0005753343989879719, 0.002402586603461512, -2.6381411248081867e-05, -0.0008351965645199647, -0.002799442734091033, -0.003970284934927826, -0.008938168075062078, -0.017200991824088137, -0.02070530853579751, -0.018074359715447862, -0.02457163383179825, -0.0191127674718355, -0.005828517013743775, -0.0034008347210456686, -0.00030511142364907014, -0.00012798065399804027, 5.716593960526423e-06, 1.06666637858424e-05, 1.3298278168579182e-06, -2.8582414248782414e-06, -2.203246685770461e-06, 1.9692794350196254e-05, -0.0008013629879642112, 0.0013618743119224283, 0.002796693396983062, 0.004632644284252734, 0.003912332048882216, 0.004939568518701958, -0.0015082201767198046, -0.003051076463818532, -0.005300910064388383, -0.008619144794349576, -0.01506164610251594, -0.015106278153630876, -0.013775729942352634, -0.015499607985138561, -0.015036185063006854, -0.01680331037769217, -0.01790817841968359, -0.009826174832546752, -0.0008845405131191621, -0.00021263572328665992, 1.4187884286970246e-05, -2.3094261212451754e-06, -2.2455006137996606e-05, -2.5286217915100795e-05, 1.4443530796273441e-05, 1.9289329876671925e-05, -1.0949889313758576e-05, 1.86793225448349e-05, 5.275927904539856e-05, 0.0001536879545961939, 0.00013014287975954045, -1.296612903334658e-05, -9.49648303358801e-06, -0.0004385359651045137, -0.0006908734792496695, -0.0015193891967859336, -0.00010915960884912951, 0.0020278903165881616, 0.0014071899513006924, 0.0025678258732839084, 0.0011584767450495894, 0.001695270558928591, 0.0022210799244588397, 0.0014300128044475707, -0.001493676984955578, -0.0010708349959283388, -0.000146944749532906, -2.071758436682162e-06, -2.1656832858433076e-05, 1.0708939412716307e-05, 1.9546742059059174e-05, -4.389255076322897e-06], [-2.356269916433997e-05, -2.292599243907868e-05, -1.2044267413508509e-05, 1.825055418895981e-05, -2.0421098517350046e-05, -2.9639524999167405e-05, 2.159537983582664e-05, -2.416354094862642e-06, 6.548999856477196e-06, -1.0975822341623005e-05, 1.9478069401225505e-05, 1.356778490378842e-05, -2.5423772039388603e-05, -1.5088295213917031e-05, -2.7235046065661806e-05, 2.0758744177662205e-05, -3.1843783645245576e-06, -1.717326164455135e-05, 3.5822762719466256e-05, 7.881200656123142e-06, -3.2961878056560673e-06, 2.6647288192921605e-05, 1.5379902880038337e-06, -1.0682695194453235e-05, -1.399151905934782e-06, 1.907112377096802e-05, 2.8985181787291066e-05, -3.4601904171747253e-06, -4.496401888774205e-06, -2.4314883127041596e-05, -1.4951219485737546e-05, 1.8844701372475405e-05, -9.426807704161432e-07, -2.4589575237618804e-05, 2.0148176561714455e-05, 2.546642067767566e-05, -0.0011129203397748117, -0.00023942435013916413, 3.687573634529408e-05, -3.9870190731106706e-05, -3.5925387349550715e-05, -0.00011230295537150447, -3.983776943693614e-05, -0.0002993956441111587, -0.000774032438574119, -0.0003793742715404931, -5.00627283095351e-06, -2.90710963564935e-05, -4.0160102239386914e-05, -6.951956597025385e-06, -8.142526332171849e-05, -0.00010985681200544041, 6.117857861662018e-06, 8.559170849181245e-06, 3.125782682587662e-05, 1.0896227059466508e-05, -1.614080660083977e-05, -2.7893108902405345e-05, 6.189678613878063e-07, -2.224351786703947e-05, 1.566977067400326e-05, 1.493566241588259e-05, -3.4710551870870574e-05, -0.0010818901699499153, -0.002429753851260507, -0.003211769836751503, -0.005308997457233104, -0.005447726548053493, -0.008081261006211806, -0.009881094103758228, -0.00883647832655285, -0.006321723326923731, -0.006522212326649379, -0.005330489082827019, -0.0013054883271571636, -0.002853849886898821, -0.0009467951980726792, -0.001786976653648618, -0.0014288430763543108, -0.00033203507561343647, 8.817830897767674e-06, -3.961008425186328e-06, -1.5461632928795637e-05, -4.677880435743216e-06, 1.3989844863117886e-05, 3.565108885811388e-05, 0.0001352559357505157, -3.942833870069643e-05, -1.4239553517486292e-05, 4.176730183173157e-05, 0.0002047431709953903, -0.0007662908490267636, -0.0024212922699735294, -0.005322774059415451, -0.007160697306593753, -0.006820779300037641, -0.003610143355573707, -0.006861200962035422, -0.0049495284652278536, -0.0029201727558759607, -0.00846358532944126, -0.009093221816201721, -0.003280885761336252, -0.008568072293999366, -0.00624002478076728, -0.004796496098149067, -0.006671205097247105, -0.004294398653371799, -0.0026515440741829953, -0.0006515037659149334, -0.00017839828436237885, -3.6322746613186684e-06, 5.553158751913337e-06, -1.0667375426304088e-05, 0.0005079187922725568, 0.00012589474234192536, 0.0005197080676984535, 0.0025526376308731336, 0.0033075587185418657, 0.0048351956775461, 0.0020118953616532665, -0.0008356897554540337, 0.0010489082131346663, 0.0058332318402067665, 0.00996400039363863, 0.0006340533604148853, -0.00017729770023682722, 0.003245444421754385, 0.0061100941986019204, 0.0013299949061132638, 0.005221443361239488, 0.004204995824309235, 0.001385519715102491, 0.002872994655125048, -0.00344024397107418, -0.004194875783421776, 0.0009183048662896414, 0.00141633815514689, 0.0001812515291236248, -0.0003656419350608535, -3.1314841185616334e-06, 1.0833758772351746e-05, 3.934216460928554e-05, 7.330080778794556e-05, 0.00021380699886804004, 0.00578725118656783, 0.00770407808531803, 0.00877540248055732, 0.001296113931839087, 0.003436005373416109, -0.003187240217127397, 0.002640577378992954, 0.002033892110816004, -0.003947117717099896, -0.0015590048887078084, -0.0017303929774296813, 0.004074470106470704, -0.0043993280409376796, -0.0018596340556974, -0.0006025539948549359, 0.006554089243082965, 0.00622870094682683, 0.008243960425200104, 0.003849157437642358, 0.002838348951242324, 0.0013956032908845387, -0.0007825976280619136, -0.0005610314017767785, -2.8024247366218883e-05, -1.4435974171901973e-05, -0.00020996076663595462, -0.0011994584932288675, 0.0009441016737197079, 0.002276095439267117, 0.003331456374025595, 0.00602860251214712, 0.00734805914936275, 0.0032450168737069175, 0.004021372372134648, 0.006513014311852073, -0.000935494943440182, 0.0029179784736604016, -0.00030137706274719906, -0.0007116484353985995, -0.003890320023516369, -0.0008291205667245816, 0.0005758951843611592, -0.0007001140843310873, 0.0025583325277071327, 0.006304478599441114, 0.006152778235534155, 0.012687753761005548, 0.01100296098437698, 0.004299380028212779, 0.0007953205064077247, -0.0007625906975591995, 1.2030328134502991e-05, 1.0477508020026335e-05, -0.0009346703941920585, 0.00025988181077126566, 0.0022844749171935285, -0.0010378489251353102, -0.0013329247744157632, 0.002180895118810161, 0.005086854483696212, 0.003063035881065545, 0.008753788233215879, 0.0041703093272798366, 0.003744276094968748, 0.0011578234504275092, -0.008911142978162187, 0.0015430713537218162, 0.004186367499727029, 0.0007460587552884069, 0.0020322049059294154, 0.0030773992330175586, 0.00643132247221355, 0.0072669248810661976, 0.0006468464923406498, 0.007731421589349826, 0.010809426012710824, 0.007915890700074618, 0.0011173879836732037, -0.0006696979346843554, -1.80380845012193e-05, -6.232622875446523e-05, -8.117516950885131e-06, 0.0026542165343909256, 0.004503768280063187, 0.0010705901778215764, 0.007803086155384173, 0.005754892702505569, -0.0001948940956119424, -0.0013600706204504834, -0.00029589029781856255, -0.0008285994985174902, 0.0052135310239643995, 0.0036377936551740104, -0.0035932152375606906, -0.0073427742866787665, 0.0022938605126984935, 0.001137674261196182, 0.002026590833469645, 0.005673797277562326, -0.0004372202761378062, 0.004717830961130193, 0.0017116951611059143, 0.0015103007525225148, 0.012585309726971828, 0.010217052470826108, 0.0021202109112914667, 2.7151872059357304e-05, -1.3107767548474145e-05, 2.1855335104382885e-05, -0.00016819863567568927, 0.0042394512468016095, 0.007355214668736751, 0.0009777198006217407, 0.005882520788079515, 0.00488773720694604, 0.004925894311306003, 0.002354063114053002, -0.0033765329726973543, -0.0013193036312111012, -0.001491342080805696, -0.003211238399909242, -0.004832603951426571, -0.00529323683017414, -0.0060107486357111155, 0.008520585170294805, 0.0011541701329548792, 0.007928736651642893, 0.003033097910037273, 0.0034291250187445887, 0.0064008097165051785, 0.00313703563810443, 0.010395513919902462, 0.011683263075262837, 0.002765946939035604, 2.3769875339652896e-05, -4.415300634772546e-06, 6.353984747662096e-06, -9.225567420868959e-05, 0.0030001274497469315, 0.010299793288900981, 0.003383021808522468, 0.004853847634082086, 0.008772791633128104, 0.00633287266630953, 0.004135743076852644, 0.006985330788686176, 0.0032940638360741156, 0.0013517513638624864, 0.0004610462882812007, -0.004356834210677837, 0.0023055214010372057, 0.0035395106757224863, -0.0008720226646160395, -0.001827494729351101, 0.004082121902137491, 0.0010598189609441597, 0.004035526519630081, 0.004729375313409731, 0.0009560437107354326, 0.007780875958675154, 0.011801147538567982, 0.0028760008557748165, 8.596358297530431e-06, -1.709832956504702e-05, -1.00241293583981e-05, 0.00044907716650716345, 0.0015365862828498375, 0.008855958349354359, 0.00862894289705597, 0.011721491587361839, 0.011928791001323302, 0.007707381543039575, 0.009400115332757714, 0.0039040607523843315, 0.009870769934810009, 0.012366584771963757, 0.009373463150482366, 0.01799066796232634, 0.01386402956383262, 0.011364975650241447, 0.00959121581524052, 0.003086696854220345, -0.0021464124748164742, 0.0004098392276340883, 0.0024448069836116816, 0.004556501415985034, 0.004555220328639419, 0.00810219683987863, 0.011251956451089415, 0.004101752751101618, 3.6165979911940115e-05, 3.047177466573132e-05, 6.339760407824667e-05, 0.0001925444210964158, 0.001287779207585072, 0.009595333065003278, 0.006135161474514418, 0.0061000239945338645, 0.015246719829621102, 0.007222992886154178, 0.009095159768833192, 0.009349234427244847, 0.01250642582163165, 0.0067928311689555215, 0.010012917887083089, 0.022898666983471115, 0.01123053187265372, 0.01019237402003745, 0.009853677928543225, 0.003078215283903697, 0.0020413931826061705, 0.0061843450405201774, -0.006047840239221571, 0.0011012989699971608, 0.004161413294043908, -0.0002427279445090172, 0.004802845042865262, 0.0028212729913561574, -2.5879822754522193e-06, 1.125142779673092e-05, 0.00012356032460704596, 0.00010800461008936419, 0.0008030343838765005, 0.0064917664392809115, 0.004591966696342159, -0.003430679515471515, 0.009038005779390177, 0.007528244043557346, 0.007130520642795627, 0.002631785118187717, 0.0011305578857754163, 0.005279116687639429, 0.011591571574805445, 0.008487583089321236, 0.010919150033624033, 0.012056095721213635, 0.004320340542769083, 0.007932806946825906, 0.002801532749377844, 0.00501206592674207, -0.004242649947155119, -0.005603546496296211, -0.013609289554420657, -0.009137885898673202, -0.002832134639927168, -0.001078261120844701, -0.00012081981435108339, -4.051636629120197e-05, 0.00011918964484420513, 9.354152255070693e-05, 0.0001557998321992142, 6.448119117054998e-05, -0.001638866207455619, 0.0002374610736648178, -0.00363777195968612, 0.0005183225870979625, -0.0008741337147590105, -0.0002692314223341148, -0.004342433304910142, 0.00947568449455605, 0.008867087728749034, 0.010056164810271412, 0.00821599709582632, 0.007576909046482223, 0.009468111454435107, 0.008177737536476954, 0.005109938328306213, 0.0005287233408879899, 0.0010186829476839727, -0.0034307282542382035, -0.012299850276117238, -0.006384829327476436, -0.0054150560530049656, -0.0016650927022585052, 2.699538526444209e-06, -1.421423008999603e-06, 1.0325958104560506e-05, 0.00038070350885538765, 0.0010029060825381788, -0.002699111629491169, -0.011525722969255992, -0.004122686050291365, -0.008244882170404364, -0.010075040214754768, -0.0060797669903082385, -0.005075287215560372, -0.0020310586960218414, 0.005435894309338586, 0.007181187845737649, 0.00325572846149217, 0.005252202393540574, 0.006096693470949333, 0.007069422353838499, 0.004547405626954124, 0.0016059781980022109, -0.00013373493520810588, 0.0006723678622116948, 0.007127313763182859, -0.0026827971232186018, -0.011930280976367235, -0.010998122544360804, -0.003749011417724203, -8.584901394418187e-05, -1.8145017218133515e-06, 1.4777897679570996e-05, 0.0007810913023661223, -0.0008525753255172926, -0.0032662469976067372, -0.010401020983382765, -0.013522164127271839, -0.012180781690594888, -0.005645126574039606, -0.004833508734872505, -0.0041737528795754, -0.00021928499531062066, 0.007038846159505974, 0.012426854250165768, 0.009553252121062441, 0.011146217428739743, 0.007247514750913947, 0.0008945048600718762, 0.00015736708687500843, -0.008098503425294326, -0.00651050659732485, -0.007209564239262461, -0.004077498078816214, -0.0031051940589395303, -0.010606402222796085, -0.014478050431335012, -0.005124237469771122, -0.0003741649598208298, -3.4128089136137824e-07, 0.00014567544198762286, 0.0005593229960017536, -0.0011940388914407245, -0.004036816944186216, -0.012397056319303396, -0.014874936117817377, -0.01300793191906995, -0.01277118514259787, -0.0045023156962654244, -0.003879265605466696, -0.0028473548534393624, 0.007500151020570165, 0.01548780278483304, 0.011847032568422578, 0.003329053892236111, 0.0010784139532937183, -0.0027579586734667034, -0.0065799540271720405, -0.003106522751011035, -0.008271959897485087, -0.0034945319649642634, -0.011623233148222417, -0.0029077756991691068, -0.013557465347097742, -0.014572876965453611, -0.0019613191409426096, -0.0005365074512062328, 1.4275756722781567e-06, 1.340869967270845e-05, 0.0006382131873940268, 0.0013681015337524407, -0.004769300328389411, -0.014204795930794543, -0.006639520806615219, -0.016598697259622798, -0.01832858074793901, -0.019206449302262275, -0.025769218703363753, -0.023537293736668487, -0.02180131987904947, -0.00619591314121482, -0.011358005994150794, -0.009235730762201248, -0.013617503417921926, -0.010093320544580729, -0.010885258804083869, -0.011105296245391066, -0.002553318955730263, -0.0020048611693139397, -0.006127871827205039, -0.007230585144982865, -0.016568684698031085, -0.009769927441648766, 0.0002508829152051078, -1.666434600116758e-05, 3.3561129786976475e-06, 1.2641290366363879e-05, 0.0006084271811695435, 0.0034430056958967355, -0.00106778746142181, -0.003337944729637015, -0.0031891981656486735, -0.0018920450873017006, -0.006720393822695717, -0.012157618004304926, -0.01789997641489965, -0.03463272297272922, -0.03491539272822826, -0.016876409053242343, -0.010559040393833988, -0.005928888573946347, -0.004135409805796424, -0.0027682548492932615, 0.002056179117191357, -0.0025395362582258875, -0.0038221565096124, 0.00010932848147146188, -0.0010928126012861483, -0.0018081876604854573, -0.011378812806653081, -0.004651124623140448, -0.0014928035560968411, 3.624770377471384e-05, -6.954513303069659e-06, 2.3308819071829293e-05, 0.0004207955577604149, 0.00308944482178377, -0.0022074663253548107, -0.007430336908413455, -0.0003674345342151984, -0.00042813990476085805, 0.0012064076185218657, -0.0017646023816359467, 0.002455324749694215, -0.0053095930143771475, -0.004437004912402579, -0.010426987558296618, -0.006865442736196965, -0.0045102913445258935, -0.005315739132809714, -0.00016993286924012722, -0.006396083622814885, 0.0006459615588092652, -0.0050789708899564795, -0.003964030323777705, 0.0019281132142389443, -0.0033763658704565446, -0.00979619408029035, -0.00383022450420806, -0.0009304873074489497, 2.1293257994497433e-05, 8.305909678955245e-06, -1.3317581975456126e-05, 0.0013231611772655818, 0.0017737407357671497, 0.0011121631338259384, -0.002780009734580339, -0.001838385162373826, 0.0017976361990806164, 0.0026502901440027355, -0.0018230832287599824, -0.00041305058041821456, 0.0007612280867512692, -0.003047967164455873, -0.008273376057058399, -0.0054565209104800155, -0.004002450390878547, -0.004881894791821023, -0.00526239492243522, -0.006389155722112329, -0.00895715318347342, -0.007850992129637219, -0.010425138950198134, -0.0032490608723608014, -0.006335531197329948, -0.005602339605475832, -0.002296310465646092, -0.00014682583885513691, -8.609561702664535e-06, 2.1061389365178237e-06, 3.2620027435362084e-06, 0.001212970564216611, -0.00018566631432351114, 0.0008382072907152586, -0.00038089058805901093, -0.003279672326099033, -0.0018205054920912094, -0.00041313693322088765, -0.001945735525673698, 0.000646628156538062, 0.0009386671765813029, -0.004064556230770669, -0.00454409844246306, 0.0009807253301777452, -0.004089115584227748, -0.0042176868360049415, -0.003902147885911867, -0.006304269457161559, -0.006502849402675098, -0.01193041114450664, -0.014705636392703529, -0.008343669523370205, -0.006267275652400926, -0.004097656624996864, -0.0030685528340950036, 1.764515990405295e-05, 2.5585300461226835e-05, -1.7244684891617615e-05, -6.7756817524046345e-06, 0.00016137531040757232, 0.0010249788114073829, 0.0024764333590336046, -0.002007701624080898, -0.008661155620241548, -0.00815158485709932, -0.00412506524434966, -0.009034609281843327, -0.004187799231853943, -0.006630554878837725, -0.002821548895477194, 0.0023911025802784212, 0.0024449074548136642, 0.0017264170155977226, 0.0054395815325188855, -1.1573987231896778e-05, -0.0018161237995720657, -0.0036926097727503176, -0.0007243704319809184, -0.002366923111723422, -0.007008240313433731, -0.0023261274132977605, -0.0016093351388418828, -0.0018216182893190276, 0.00023759152569505413, -2.9892794504839497e-05, 2.858780506736496e-05, -1.10750035466008e-05, 4.653432659031977e-05, 0.0013723526070311051, 0.0018226267016319714, 0.0025538023642981025, 0.0021658605596764405, 0.005014209081447859, 0.00397927246816633, -0.00032103303636267717, 0.004768194477670108, 0.004760881794578237, 0.0001698793732007353, -0.0034839004911520494, -0.0030915244680289914, 0.004885743151677519, 0.01072773152001089, 0.009515785670026047, 0.007329193740234931, 0.011259447409480818, 0.009458178337813287, 0.0039271663503804115, 0.00030373764710856936, 0.0003606716176588951, -0.000745567270918119, -0.0004408894124656234, -2.035883572534749e-05, -8.48274445023094e-06, -1.3388647259070886e-05, 8.575223169217081e-06, 8.36553783676433e-06, 3.3622003296389316e-05, 0.00036466452069598704, 0.0027010384852327323, 0.006258814101684893, 0.009776967735114392, 0.012175394534371078, 0.013298950273467508, 0.014784254308274344, 0.01465182292713891, 0.01570648000696585, 0.01481722701107584, 0.015847406782305774, 0.017507096833688444, 0.01163226434482503, 0.008044028670054871, 0.006382586629433022, 0.004363153158183551, 0.002585201371155809, 0.002529210074202697, 0.0011907353240808896, 0.0008031979745016647, 0.0005121473278012496, -1.2885708916027041e-05, -7.907593813582702e-05, 3.853018954467281e-06, 2.6569297960010613e-05, -2.262212576615217e-06, 6.893221187465929e-06, 1.5207527699306034e-05, 4.936932859356863e-05, 0.0009619195555249093, 0.0015823470739510046, 0.0029717749057890344, 0.0032852720546203648, 0.004190976989044576, 0.0029187607505217848, 0.0029173086533239865, 0.002549604185844348, 0.004009676899180596, 0.003743697766659055, 0.0029704750150804926, 0.0028295729878918246, 0.0023887843917203963, 0.0018096027089618701, 0.0013000937611253138, 0.0007985510260449537, 0.0008041128253199925, 0.00035734400838226423, 0.00016513151066788455, -3.4581338441292935e-05, 1.6885083190713424e-05, 2.7608513399150375e-05, -1.67469082387734e-05, 1.0908136168336397e-05, 4.266656936223845e-05, 8.414573894570415e-06, 5.906134403676349e-06, 2.245036555360714e-05, -1.8501490270521535e-05, 1.4302939017999769e-05, 1.2014382352591261e-05, 0.0002442896324886807, 0.0007087365214760937, 0.00019904127179410164, 7.033969327880793e-06, 9.36062021645307e-05, 0.00011584561321240863, 6.077913535679517e-05, 0.00043179466783111874, 0.0004319760733456308, 0.00012473947876164474, 0.00024683223653899504, 6.78626746816833e-05, 9.640824709703041e-05, 8.136013197882401e-05, 0.00018903851312560046, 2.478034435953146e-05, -3.6978497236297017e-06, 7.759420794384664e-06, -2.4997074700352313e-05, 1.705948043459505e-05], [1.7860905216855272e-05, -1.0776040625907477e-05, -1.665342996950628e-05, -1.5192707540829992e-05, -1.917304980017048e-05, -2.564350306451528e-05, -1.959650425013573e-06, 3.0276482979029064e-05, -3.4233704726964165e-05, -2.0533700335240593e-05, 2.8002846899276222e-08, -4.772010752379767e-06, 0.0002400453342967683, 0.00035177083051853047, -0.00017012190201695494, -6.082725089697699e-07, -1.112055469434204e-05, -8.660122613141381e-06, -1.2003979898502858e-05, 6.575739810361852e-06, -1.8471879634252725e-06, -1.4726166851543294e-05, 4.777079335990974e-06, -7.994433156034734e-06, 2.2089943217833832e-05, -2.1795305084673074e-05, 1.7200989650292625e-05, 8.45614575172326e-06, 1.1297115790306883e-05, -7.828085471459958e-06, 9.698022160589069e-06, -2.3139672208570115e-05, 5.267017632235953e-06, 1.69075755564944e-05, 0.0001679593812609489, 0.0002830137625465357, 0.0004472221915594845, 0.00032946607913148754, 0.0009239449549949711, 0.0009356490699082827, 0.0006816151487934518, 0.0011144684453368307, 0.00039768442970234015, 6.266848999658416e-05, -0.0008511415661972111, -0.00019533207374245072, -2.1575677860723935e-05, 0.00017596360683094908, 0.00011898791445300884, 1.5472886925434216e-05, -3.4446595464441335e-06, -9.77764786906819e-07, -1.4304797545468238e-05, -1.2366059608593023e-05, -1.4395564281631824e-05, -2.9967924858193405e-06, -2.6805631308165363e-05, 4.245344513790643e-06, -2.0062868899708076e-05, -2.812271535281066e-06, 2.2234840436004297e-06, 4.8065063183405314e-05, 0.0007088215287420768, 0.0017824923905643449, 0.00267155488497729, 0.0015652035677944046, 0.0012903938339249093, 0.0005668233540223679, 0.0011419062046562633, 0.0027103953089308583, 0.006467499312506816, 0.006203907206826646, 0.004264440066290779, 0.004066344751555744, 0.007128994102078637, 0.006534135481760203, 0.0073503102301326305, 0.005298280977352054, 0.0029030284957702553, 0.0015281660148273048, 0.0009272524013857309, 0.00016009507767125259, 4.790803150962307e-06, -6.979327316992605e-06, -1.9822978237576797e-05, 2.0059562751774697e-06, -2.841090602349581e-06, -2.7342117498287918e-05, -2.0441733270175164e-06, -0.00019965669454123219, 0.0007948646740025333, 0.0013912782086696273, 0.000669198687708921, -0.0003761934563242343, -0.0016364410011243263, -0.004085503296105973, -0.0037942167817619312, -0.003854006312967944, 0.000581364112174415, 0.0007852773099617227, 0.005579374509690378, 0.009101491127270003, 0.007208113871753376, 0.007881532947789045, 0.006998327972403347, 0.01117942183363302, 0.006628953744725912, 0.005049286030784203, 0.004892487821773833, -0.00011860241020007873, -0.00015564135342508782, 3.9666819980823305e-06, 4.41291665128297e-06, -1.3867558331060677e-05, -1.7965139056022168e-05, -3.5301782517938288e-06, -0.00018785745406731723, -0.0009996422017713813, -0.0002986409870069938, -0.0026340935383984978, -0.005855474399942552, -0.007891391050215213, -0.0076816398863491404, -0.011438227599005797, -0.008665710563940334, -0.001959101538036406, -0.007768091621093644, -0.0036563617001126696, -0.0023615266929357254, -0.0025386121298495126, 0.0011823598255310162, 0.004702666918074839, 0.007208682735948727, 0.009945691905926722, 0.011516445981767555, 0.007295683312881601, 0.0010846561265840037, -0.00017115205893411767, -6.953899315386492e-05, -3.3575697060894625e-05, -1.8900337917253978e-05, -2.7608226771976186e-06, -5.7165389924414635e-05, -0.00039565536209482317, -0.0018128015902049094, -0.0029142220416985784, -0.0018359446879443993, -0.0044078646954436715, -0.0032814361587733955, -0.0020640458014543383, -0.0022601010484994536, -0.006158919434440607, -0.0020660183326396105, -0.0032276412274427923, -0.0051496664207207775, -0.0005674207456080677, -0.005950921143747042, -0.004310267988969085, -0.0022250198963253242, -0.0008455122687642782, -0.003966254452655697, -0.0026349129256932565, -0.003319431072561742, 0.003443002244249827, -0.0014065823256001956, -0.00475050809949405, -0.003083674555518785, -0.00048641437608792465, 1.9532811461330505e-05, -3.644826902335482e-06, 0.0009323151943763185, -0.0011252804269610726, -0.000883218777795386, -0.0014765522358351412, -0.002197983004841556, -0.004423616334150961, -0.0027633061748619184, -0.0019478642897749758, -0.0045215787950266045, -0.00030339749228460567, -0.0006093653932527617, -0.002379487461629309, 0.0010817447837076378, -0.0019297666826975984, -0.004011421106894228, -0.00048668733358868556, -0.0017175825346134863, -0.0023923761556170356, -0.009401417018580592, -0.005154374333242668, -0.001091471919647356, -0.003515175206528715, -0.01400871027903326, -0.01189749240903113, -0.005429997236131427, -0.0016037683534785273, -1.8085638530351442e-06, -0.00016271773857569325, 0.00139921846981665, 0.0003945499244573555, -0.001993606201379951, -0.00020822755955011, 9.244187198829951e-05, -0.002734483581338227, -0.003958391543668437, 0.004976352732857594, -0.0015027230811618135, 0.0012407806312162712, 0.0018054329712583416, -0.0009758619922726466, -0.0032003020450271577, 0.003482699368309749, 0.00015372897446372892, 0.0028653239966686408, 0.0010236866390693888, 0.0005315280752766994, -0.006181127838037539, -0.004497628241582078, 0.0004160096561058791, -0.006475888656331134, -0.01915279735255457, -0.016442430445579862, -0.003116367339737313, -0.0005347956888758875, 2.3723873310211022e-05, 0.00033571526787466813, 0.0021054981803727136, 0.0006516881975505005, -0.0014368417922178494, 0.0004821417596945667, -0.0006171959936546897, -0.0036479140927659897, 0.0022941274988005898, 0.0020883870954624176, 0.001542650182047563, -0.0012135171907003519, -0.0025014909735084317, -0.0007662434724711187, 0.0021729966253525744, -0.003717334734967074, 0.002629257256611154, 0.000741770523146654, 0.0007881128558132414, -0.005651558629283394, -0.0021256117966125198, -0.004187877461613343, -0.005306655511173805, -0.006852352786589717, -0.018596564308539554, -0.014642164463980029, -0.00414990745444894, -0.0007630543841201476, -2.0351542133613574e-05, 0.0003676836061433222, 0.0012814335430312667, -0.0002851475474768586, -0.004471178932614152, -0.00017595859195675853, -0.004134783847193912, 0.002826595075317244, 0.003852577759211713, -0.0009661461535102776, 0.00692914742889989, -0.0027782262006554913, 0.003949086569136025, 0.0018743995676153914, 0.0026352170053966914, 0.004760363676571754, 0.0007826216680931345, 0.0018411528552300619, -0.004307120107522832, 0.006427920602173348, -0.004116941963486625, -0.001762072013148843, -0.011916181935301601, -0.009491635095118064, -0.026394435536238055, -0.018344459562749892, -0.006243449425197939, -0.0005430221957450543, 1.5009517016700512e-05, 0.0005097997318915528, 0.0012496231035905912, -0.0015828085460107178, -0.005124378605235503, 0.00048241413158712305, -0.005064191809118598, -0.0010489096023325471, 0.0004604296280239285, 0.0013545486495749792, 0.004818122608769556, 0.0026904510731543597, 0.0025090306191245747, 0.007828973051384126, -0.004127280261946045, 0.0008871194342900136, 0.0034153130021453816, 0.004395648403106901, 0.0005286438176783317, 0.006741174643100869, 0.002124514222139683, -0.002071095096319361, -0.012797659868851516, -0.0162178394124547, -0.027100580424200067, -0.028177294261459703, -0.00894360941477908, -0.0007995377373468989, 4.816761584012508e-05, 0.0008167856827772939, 0.0015947553327399912, 0.0006488035435920525, -0.004988402662649234, -0.000978961480768397, 0.0008068677252767965, 0.003561322445328174, 0.0005778677000798219, 0.004141600454649499, 0.010769816780069098, 0.0060232632435296835, 0.0031060120219232094, 0.00021705127352598168, -0.012174543062935122, -0.0015574660218398578, -0.0003340142069938282, 0.0013240763505364378, 0.0013065707604528304, 0.0005000700970251565, 0.013976513499106936, 0.009441698918747007, 0.005745966500713423, 0.0059556910215270795, -0.0073726674308703805, -0.015615026481462563, -0.002822110167802224, 3.822176654565478e-05, 5.837958965482645e-05, 0.0009391222282434363, 0.0012823955836744007, 0.00012030150379580555, -0.004510243400573835, 0.0025013425467829515, 0.008572253843777305, 0.004072700238852319, 0.005857959399506123, 0.00773765397619502, 0.0019718887630191394, 0.004888013970568546, 0.004936494781102241, -0.002820311082261107, -0.019937156147059116, 0.0063883611344125145, 0.00393935472389746, 0.005142133791838185, -0.0005393841522985445, 